{"learner":{"attributes":{"scikit_learn":"{\"_estimator_type\": \"regressor\"}"},"feature_names":["RICE","WHEAT","RAW_OIL","REFINED_HYDROCARBONE","PEANUT_PRODUCTS_QTE","PEANUT_PRODUCTS_VALUE","PECHE","PRINCIPAL","INTERETS","IMPOT_REVENU_ET_SOCIETE","IMPOT_EMPLOYEUR_CFCE","TAXE_BIENS_SERVICES","TAXE_COMMERCE_EXTERIEUR","IMPOT_SUR_PROPRIETE_AUTRES_IMP","FOND_SEC_PP_FSIP","RECETTES_NON_FISCALES","MASSE_SALARIALE","FRAIS_HOSPITALISATION","EFFECTIF","OIGNON_LOCAL","OIGNON_IMPORTE","CEREALES_LOCALES_SOUNA","CEREALES_LOCALES_SORGHO","CEREALES_LOCALES_MAIS","RIZ_BRISE_PARFUME_LUXE","RIZ_BRISE_PARFUME_ORDIN","RIZ_BRISE_NON_PARFUME","RIZ_BRISE_INDIEN_ORD","RIZ_BRISE_LOCAL","AERIEN_MVTS_AERONEFS","AERIEN_PASSAGERS_DEPARTS","AERIEN_PASSAGERS_ARRIVEES","AERIEN_PASSAGERS_TRANSIT","AERIEN_FRET_DEPARTS","AERIEN_FRET_ARRIVEES","MARIT_EMBRQMT_MARCHNDIS_DIV","MARIT_EMBRQMT_PHOSPAHTES","MARIT_EMBARQMT_PRODUIS_MER","MARIT_DEBARQMT_MARCHDIS_DIV","MARIT_DEBARQMT_PETROLE_BRUT","MARIT_DEBARQMT_HYDROCARB_RAFF","MARIT_PDUIT_MER_DEBARQUEMENT","MARIT_PDUIT_MER_TRANSBORDEMENT","RECETTES_FISCALES","RECETTES_BUDGETAIRES_DIFF","Année","Mois","Trimestre","RECETTES_BUDGETAIRES_lag_1","RECETTES_BUDGETAIRES_lag_2","RECETTES_BUDGETAIRES_lag_3","RECETTES_BUDGETAIRES_lag_6","RECETTES_BUDGETAIRES_lag_12","RECETTES_BUDGETAIRES_ma_3","RECETTES_BUDGETAIRES_ma_6","RECETTES_BUDGETAIRES_ma_12","Mois_sin","Mois_cos","Trimestre_sin","Trimestre_cos"],"feature_types":["float","float","float","float","float","float","float","float","float","float","float","float","float","float","float","float","float","float","float","float","float","float","float","float","float","float","float","float","float","float","float","float","float","float","float","float","float","float","float","float","float","float","float","float","float","int","int","int","float","float","float","float","float","float","float","float","float","float","float","float"],"gradient_booster":{"model":{"gbtree_model_param":{"num_parallel_tree":"1","num_trees":"300"},"iteration_indptr":[0,1,2,3,4,5,6,7,8,9,10,11,12,13,14,15,16,17,18,19,20,21,22,23,24,25,26,27,28,29,30,31,32,33,34,35,36,37,38,39,40,41,42,43,44,45,46,47,48,49,50,51,52,53,54,55,56,57,58,59,60,61,62,63,64,65,66,67,68,69,70,71,72,73,74,75,76,77,78,79,80,81,82,83,84,85,86,87,88,89,90,91,92,93,94,95,96,97,98,99,100,101,102,103,104,105,106,107,108,109,110,111,112,113,114,115,116,117,118,119,120,121,122,123,124,125,126,127,128,129,130,131,132,133,134,135,136,137,138,139,140,141,142,143,144,145,146,147,148,149,150,151,152,153,154,155,156,157,158,159,160,161,162,163,164,165,166,167,168,169,170,171,172,173,174,175,176,177,178,179,180,181,182,183,184,185,186,187,188,189,190,191,192,193,194,195,196,197,198,199,200,201,202,203,204,205,206,207,208,209,210,211,212,213,214,215,216,217,218,219,220,221,222,223,224,225,226,227,228,229,230,231,232,233,234,235,236,237,238,239,240,241,242,243,244,245,246,247,248,249,250,251,252,253,254,255,256,257,258,259,260,261,262,263,264,265,266,267,268,269,270,271,272,273,274,275,276,277,278,279,280,281,282,283,284,285,286,287,288,289,290,291,292,293,294,295,296,297,298,299,300],"tree_info":[0,0,0,0,0,0,0,0,0,0,0,0,0,0,0,0,0,0,0,0,0,0,0,0,0,0,0,0,0,0,0,0,0,0,0,0,0,0,0,0,0,0,0,0,0,0,0,0,0,0,0,0,0,0,0,0,0,0,0,0,0,0,0,0,0,0,0,0,0,0,0,0,0,0,0,0,0,0,0,0,0,0,0,0,0,0,0,0,0,0,0,0,0,0,0,0,0,0,0,0,0,0,0,0,0,0,0,0,0,0,0,0,0,0,0,0,0,0,0,0,0,0,0,0,0,0,0,0,0,0,0,0,0,0,0,0,0,0,0,0,0,0,0,0,0,0,0,0,0,0,0,0,0,0,0,0,0,0,0,0,0,0,0,0,0,0,0,0,0,0,0,0,0,0,0,0,0,0,0,0,0,0,0,0,0,0,0,0,0,0,0,0,0,0,0,0,0,0,0,0,0,0,0,0,0,0,0,0,0,0,0,0,0,0,0,0,0,0,0,0,0,0,0,0,0,0,0,0,0,0,0,0,0,0,0,0,0,0,0,0,0,0,0,0,0,0,0,0,0,0,0,0,0,0,0,0,0,0,0,0,0,0,0,0,0,0,0,0,0,0,0,0,0,0,0,0,0,0,0,0,0,0,0,0,0,0,0,0,0,0,0,0,0,0,0,0,0,0,0,0],"trees":[{"base_weights":[3.946998E-1,-2.5309261E1,7.19016E1,-4.103823E1,-3.6206517E0,5.7386894E1,6.3249884E0,-2.4609697E0,-1.6230589E0,-6.6586125E-1,6.2878084E-1,1.1142879E0,3.0024462E0],"categories":[],"categories_nodes":[],"categories_segments":[],"categories_sizes":[],"default_left":[0,0,0,0,0,0,0,0,0,0,0,0,0],"id":0,"left_children":[1,3,5,7,9,11,-1,-1,-1,-1,-1,-1,-1],"loss_changes":[1.598887E5,2.1684336E4,1.0967539E4,9.9858203E2,4.5648247E3,5.305703E2,0E0,0E0,0E0,0E0,0E0,0E0,0E0],"parents":[2147483647,0,0,1,1,2,2,3,3,4,4,5,5],"right_children":[2,4,6,8,10,12,-1,-1,-1,-1,-1,-1,-1],"split_conditions":[1.703E2,1.2231E2,2.2463E2,1.015E2,1.383E2,1.580191E0,6.3249884E0,-2.4609697E0,-1.6230589E0,-6.6586125E-1,6.2878084E-1,1.1142879E0,3.0024462E0],"split_indices":[43,43,43,43,43,4,0,0,0,0,0,0,0],"split_type":[0,0,0,0,0,0,0,0,0,0,0,0,0],"sum_hessian":[8.5E1,6.3E1,2.2E1,3.6E1,2.7E1,1.9E1,3E0,1.6E1,2E1,1.7E1,1E1,2E0,1.7E1],"tree_param":{"num_deleted":"0","num_feature":"60","num_nodes":"13","size_leaf_vector":"1"}},{"base_weights":[1.4880849E0,-2.2602528E1,7.893231E1,-4.160591E1,-1.3876809E0,5.8778713E1,6.9864764E0,-2.582154E0,-1.5271715E0,-5.647737E-1,7.494263E-1,8.093613E-1,3.012281E0],"categories":[],"categories_nodes":[],"categories_segments":[],"categories_sizes":[],"default_left":[0,0,0,0,0,0,0,0,0,0,0,0,0],"id":1,"left_children":[1,3,5,7,9,11,-1,-1,-1,-1,-1,-1,-1],"loss_changes":[1.8088927E5,2.9775648E4,1.996839E4,2.7530469E3,6.0103765E3,2.1186719E2,0E0,0E0,0E0,0E0,0E0,0E0,0E0],"parents":[2147483647,0,0,1,1,2,2,3,3,4,4,5,5],"right_children":[2,4,6,8,10,12,-1,-1,-1,-1,-1,-1,-1],"split_conditions":[1.6815E2,1.2231E2,2.2463E2,1.004E2,1.424E2,3.054E1,6.9864764E0,-2.582154E0,-1.5271715E0,-5.647737E-1,7.494263E-1,8.093613E-1,3.012281E0],"split_indices":[43,43,43,43,43,7,0,0,0,0,0,0,0],"split_type":[0,0,0,0,0,0,0,0,0,0,0,0,0],"sum_hessian":[9.5E1,7.3E1,2.2E1,3.8E1,3.5E1,1.8E1,4E0,1.8E1,2E1,2.2E1,1.3E1,1E0,1.7E1],"tree_param":{"num_deleted":"0","num_feature":"60","num_nodes":"13","size_leaf_vector":"1"}},{"base_weights":[5.286898E-2,-2.1398125E1,7.972547E1,-3.9131477E1,3.7777075E-1,5.2459717E1,6.957329E0,-2.5993526E0,-1.5913914E0,-4.324409E-1,6.7957914E-1,1.2146832E0,2.8545415E0],"categories":[],"categories_nodes":[],"categories_segments":[],"categories_sizes":[],"default_left":[0,0,0,0,0,0,0,0,0,0,0,0,0],"id":2,"left_children":[1,3,5,7,9,11,-1,-1,-1,-1,-1,-1,-1],"loss_changes":[1.6919353E5,3.0135238E4,2.6723797E4,2.38275E3,4.411474E3,7.0009766E2,0E0,0E0,0E0,0E0,0E0,0E0,0E0],"parents":[2147483647,0,0,1,1,2,2,3,3,4,4,5,5],"right_children":[2,4,6,8,10,12,-1,-1,-1,-1,-1,-1,-1],"split_conditions":[1.674E2,1.2231E2,2.2463E2,9.45E1,1.461E2,1.304E2,6.957329E0,-2.5993526E0,-1.5913914E0,-4.324409E-1,6.7957914E-1,1.2146832E0,2.8545415E0],"split_indices":[43,43,43,43,43,49,0,0,0,0,0,0,0],"split_type":[0,0,0,0,0,0,0,0,0,0,0,0,0],"sum_hessian":[9.7E1,7.7E1,2E1,4.2E1,3.5E1,1.5E1,5E0,1.3E1,2.9E1,2.1E1,1.4E1,3E0,1.2E1],"tree_param":{"num_deleted":"0","num_feature":"60","num_nodes":"13","size_leaf_vector":"1"}},{"base_weights":[-1.3452934E0,-2.4084253E1,5.0777653E1,-3.9944298E1,-6.6297956E0,3.1505323E1,8.8099014E1,-2.4880888E0,-1.5494332E0,-6.6898483E-1,2.2253735E-1,9.1894007E-1,2.2709634E0,2.480225E0,5.2747307E0],"categories":[],"categories_nodes":[],"categories_segments":[],"categories_sizes":[],"default_left":[0,0,0,0,0,0,0,0,0,0,0,0,0,0,0],"id":3,"left_children":[1,3,5,7,9,11,13,-1,-1,-1,-1,-1,-1,-1,-1],"loss_changes":[1.2093032E5,1.9390004E4,1.9521773E4,1.7110508E3,2.677289E3,3.1833672E3,1.4633438E3,0E0,0E0,0E0,0E0,0E0,0E0,0E0,0E0],"parents":[2147483647,0,0,1,1,2,2,3,3,4,4,5,5,6,6],"right_children":[2,4,6,8,10,12,14,-1,-1,-1,-1,-1,-1,-1,-1],"split_conditions":[1.535E2,1.164E2,2.0454E2,9.45E1,1.361E2,1.764E2,1.3571297E1,-2.4880888E0,-1.5494332E0,-6.6898483E-1,2.2253735E-1,9.1894007E-1,2.2709634E0,2.480225E0,5.2747307E0],"split_indices":[43,43,43,43,43,43,15,0,0,0,0,0,0,0,0],"split_type":[0,0,0,0,0,0,0,0,0,0,0,0,0,0,0],"sum_hessian":[1E2,7E1,3E1,3.6E1,3.4E1,2.1E1,9E0,1.5E1,2.1E1,2.1E1,1.3E1,1.2E1,9E0,4E0,5E0],"tree_param":{"num_deleted":"0","num_feature":"60","num_nodes":"15","size_leaf_vector":"1"}},{"base_weights":[-2.0328536E0,-1.966064E1,6.663258E1,-3.4653885E1,2.7316647E0,1.9283571E0,4.52064E0,-2.0785508E0,-1.2046283E0,-4.029923E-1,6.001754E-1],"categories":[],"categories_nodes":[],"categories_segments":[],"categories_sizes":[],"default_left":[0,0,0,0,0,0,0,0,0,0,0],"id":4,"left_children":[1,3,5,7,9,-1,-1,-1,-1,-1,-1],"loss_changes":[1.06616555E5,2.3595994E4,8.526273E3,2.0667148E3,2.998405E3,0E0,0E0,0E0,0E0,0E0,0E0],"parents":[2147483647,0,0,1,1,2,2,3,3,4,4],"right_children":[2,4,6,8,10,-1,-1,-1,-1,-1,-1],"split_conditions":[1.703E2,1.245E2,2.0631E2,1.04E2,1.43E2,1.9283571E0,4.52064E0,-2.0785508E0,-1.2046283E0,-4.029923E-1,6.001754E-1],"split_indices":[43,43,43,43,43,0,0,0,0,0,0],"split_type":[0,0,0,0,0,0,0,0,0,0,0],"sum_hessian":[8.6E1,6.9E1,1.7E1,4.1E1,2.8E1,9E0,8E0,2.3E1,1.8E1,1.3E1,1.5E1],"tree_param":{"num_deleted":"0","num_feature":"60","num_nodes":"11","size_leaf_vector":"1"}},{"base_weights":[-2.0256078E0,-1.6535389E1,6.430187E1,-3.0070896E1,5.038168E0,3.9900055E1,4.9160776E0,-2.0039864E0,-1.0607611E0,-2.4963169E-1,5.7227355E-1,8.036588E-1,2.1704507E0],"categories":[],"categories_nodes":[],"categories_segments":[],"categories_sizes":[],"default_left":[0,0,0,0,0,0,0,0,0,0,0,0,0],"id":5,"left_children":[1,3,5,7,9,11,-1,-1,-1,-1,-1,-1,-1],"loss_changes":[8.575421E4,2.146816E4,9.359234E3,3.1382734E3,1.9209843E3,2.2196094E2,0E0,0E0,0E0,0E0,0E0,0E0,0E0],"parents":[2147483647,0,0,1,1,2,2,3,3,4,4,5,5],"right_children":[2,4,6,8,10,12,-1,-1,-1,-1,-1,-1,-1],"split_conditions":[1.703E2,1.308E2,2.0631E2,1.042E2,1.424E2,4.94E1,4.9160776E0,-2.0039864E0,-1.0607611E0,-2.4963169E-1,5.7227355E-1,8.036588E-1,2.1704507E0],"split_indices":[43,43,43,43,43,7,0,0,0,0,0,0,0],"split_type":[0,0,0,0,0,0,0,0,0,0,0,0,0],"sum_hessian":[8.7E1,7.2E1,1.5E1,4.4E1,2.8E1,1E1,5E0,1.9E1,2.5E1,1.1E1,1.7E1,2E0,8E0],"tree_param":{"num_deleted":"0","num_feature":"60","num_nodes":"13","size_leaf_vector":"1"}},{"base_weights":[3.0858443E0,-1.7726404E1,6.632833E1,-3.379934E1,-2.9469516E0,4.4225403E1,5.8949294E0,-2.1074173E0,-1.2934262E0,-4.8388648E-1,5.660541E-1,9.983347E-1,2.3998752E0],"categories":[],"categories_nodes":[],"categories_segments":[],"categories_sizes":[],"default_left":[0,0,0,0,0,0,0,0,0,0,0,0,0],"id":6,"left_children":[1,3,5,7,9,11,-1,-1,-1,-1,-1,-1,-1],"loss_changes":[1.1700298E5,1.5816191E4,1.986268E4,1.0285469E3,3.566821E3,5.972578E2,0E0,0E0,0E0,0E0,0E0,0E0,0E0],"parents":[2147483647,0,0,1,1,2,2,3,3,4,4,5,5],"right_children":[2,4,6,8,10,12,-1,-1,-1,-1,-1,-1,-1],"split_conditions":[1.6815E2,1.164E2,2.2463E2,9.9E1,1.461E2,1.5038E1,5.8949294E0,-2.1074173E0,-1.2934262E0,-4.8388648E-1,5.660541E-1,9.983347E-1,2.3998752E0],"split_indices":[43,43,43,43,43,6,0,0,0,0,0,0,0],"split_type":[0,0,0,0,0,0,0,0,0,0,0,0,0],"sum_hessian":[8.7E1,6.6E1,2.1E1,3.1E1,3.5E1,1.6E1,5E0,1.3E1,1.8E1,2.4E1,1.1E1,3E0,1.3E1],"tree_param":{"num_deleted":"0","num_feature":"60","num_nodes":"13","size_leaf_vector":"1"}},{"base_weights":[4.6988153E0,-1.36046295E1,7.477527E1,-2.7167805E1,6.7415156E0,2.4628603E0,6.092744E0,-1.666248E0,-7.714252E-1,-1.7291161E-1,5.638757E-1],"categories":[],"categories_nodes":[],"categories_segments":[],"categories_sizes":[],"default_left":[0,0,0,0,0,0,0,0,0,0,0],"id":7,"left_children":[1,3,5,7,9,-1,-1,-1,-1,-1,-1],"loss_changes":[1.1773758E5,2.032811E4,1.6823992E4,2.6661973E3,1.4269813E3,0E0,0E0,0E0,0E0,0E0,0E0],"parents":[2147483647,0,0,1,1,2,2,3,3,4,4],"right_children":[2,4,6,8,10,-1,-1,-1,-1,-1,-1],"split_conditions":[1.764E2,1.2755079E2,2.2463E2,1.102E2,1.43E2,2.4628603E0,6.092744E0,-1.666248E0,-7.714252E-1,-1.7291161E-1,5.638757E-1],"split_indices":[43,43,43,43,43,0,0,0,0,0,0],"split_type":[0,0,0,0,0,0,0,0,0,0,0],"sum_hessian":[9E1,7.2E1,1.8E1,4.3E1,2.9E1,1.3E1,5E0,2.7E1,1.6E1,9E0,2E1],"tree_param":{"num_deleted":"0","num_feature":"60","num_nodes":"11","size_leaf_vector":"1"}},{"base_weights":[1.0467991E0,-1.6038857E1,5.9576344E1,-2.6007082E1,1.5380769E0,4.243022E1,6.0919905E0,-1.5057169E0,-7.755566E-1,-2.1594925E-1,4.6096596E-1,1.3505305E0,2.6032426E0],"categories":[],"categories_nodes":[],"categories_segments":[],"categories_sizes":[],"default_left":[0,0,0,0,0,0,0,0,0,0,0,0,0],"id":8,"left_children":[1,3,5,7,9,11,-1,-1,-1,-1,-1,-1,-1],"loss_changes":[9.295698E4,1.2655182E4,1.7249422E4,1.5159316E3,1.254535E3,1.2678145E3,0E0,0E0,0E0,0E0,0E0,0E0,0E0],"parents":[2147483647,0,0,1,1,2,2,3,3,4,4,5,5],"right_children":[2,4,6,8,10,12,-1,-1,-1,-1,-1,-1,-1],"split_conditions":[1.6677242E2,1.247E2,1.262E2,1.105E2,1.461E2,1.45E1,6.0919905E0,-1.5057169E0,-7.755566E-1,-2.1594925E-1,4.6096596E-1,1.3505305E0,2.6032426E0],"split_indices":[43,43,11,43,43,15,0,0,0,0,0,0,0],"split_type":[0,0,0,0,0,0,0,0,0,0,0,0,0],"sum_hessian":[9.1E1,7.1E1,2E1,4.5E1,2.6E1,1.7E1,3E0,3.1E1,1.4E1,1.5E1,1.1E1,8E0,9E0],"tree_param":{"num_deleted":"0","num_feature":"60","num_nodes":"13","size_leaf_vector":"1"}},{"base_weights":[3.24852E-1,-1.2865922E1,7.834319E1,-2.6890987E1,7.1980314E0,2.4177563E0,5.5327735E0,-1.8006232E0,-1.0244853E0,-1.753212E-1,7.795026E-1],"categories":[],"categories_nodes":[],"categories_segments":[],"categories_sizes":[],"default_left":[0,0,0,0,0,0,0,0,0,0,0],"id":9,"left_children":[1,3,5,7,9,-1,-1,-1,-1,-1,-1],"loss_changes":[8.5395984E4,2.0172836E4,6.2770312E3,1.714459E3,2.749626E3,0E0,0E0,0E0,0E0,0E0,0E0],"parents":[2147483647,0,0,1,1,2,2,3,3,4,4],"right_children":[2,4,6,8,10,-1,-1,-1,-1,-1,-1],"split_conditions":[1.8439E2,1.2743953E2,2.5454E2,9.9E1,1.43E2,2.4177563E0,5.5327735E0,-1.8006232E0,-1.0244853E0,-1.753212E-1,7.795026E-1],"split_indices":[43,43,43,43,43,0,0,0,0,0,0],"split_type":[0,0,0,0,0,0,0,0,0,0,0],"sum_hessian":[8.1E1,7E1,1.1E1,4.1E1,2.9E1,7E0,4E0,1.5E1,2.6E1,1.3E1,1.6E1],"tree_param":{"num_deleted":"0","num_feature":"60","num_nodes":"11","size_leaf_vector":"1"}},{"base_weights":[-8.8843864E-1,-1.4482978E1,4.6411076E1,-2.630198E1,6.4011544E-1,2.9871609E1,3.7611318E0,-1.7842509E0,-1.0335553E0,-3.116872E-1,4.1665998E-1,6.6691035E-1,1.6446723E0],"categories":[],"categories_nodes":[],"categories_segments":[],"categories_sizes":[],"default_left":[0,0,0,0,0,0,0,0,0,0,0,0,0],"id":10,"left_children":[1,3,5,7,9,11,-1,-1,-1,-1,-1,-1,-1],"loss_changes":[6.0472574E4,1.3064848E4,7.7600625E3,1.4285742E3,1.7970258E3,3.106787E2,0E0,0E0,0E0,0E0,0E0,0E0,0E0],"parents":[2147483647,0,0,1,1,2,2,3,3,4,4,5,5],"right_children":[2,4,6,8,10,12,-1,-1,-1,-1,-1,-1,-1],"split_conditions":[1.703E2,1.2231E2,2.17E1,9.45E1,1.461E2,4.94E1,3.7611318E0,-1.7842509E0,-1.0335553E0,-3.116872E-1,4.1665998E-1,6.6691035E-1,1.6446723E0],"split_indices":[43,43,15,43,43,7,0,0,0,0,0,0,0],"split_type":[0,0,0,0,0,0,0,0,0,0,0,0,0],"sum_hessian":[9.2E1,7.2E1,2E1,4E1,3.2E1,1.4E1,6E0,1.3E1,2.7E1,1.7E1,1.5E1,3E0,1.1E1],"tree_param":{"num_deleted":"0","num_feature":"60","num_nodes":"13","size_leaf_vector":"1"}},{"base_weights":[1.3798676E0,-1.5075527E1,5.1401512E1,-2.7737942E1,-3.6824958E0,3.1154205E1,4.6615233E0,-1.8060535E0,-1.0241427E0,-4.9627885E-1,2.7610445E-1,5.02816E-1,1.6648419E0],"categories":[],"categories_nodes":[],"categories_segments":[],"categories_sizes":[],"default_left":[0,0,0,0,0,0,0,0,0,0,0,0,0],"id":11,"left_children":[1,3,5,7,9,11,-1,-1,-1,-1,-1,-1,-1],"loss_changes":[7.6502484E4,9.996284E3,1.6574723E4,1.267209E3,2.2384788E3,4.3364258E2,0E0,0E0,0E0,0E0,0E0,0E0,0E0],"parents":[2147483647,0,0,1,1,2,2,3,3,4,4,5,5],"right_children":[2,4,6,8,10,12,-1,-1,-1,-1,-1,-1,-1],"split_conditions":[1.703E2,5.5874252E1,2.207E2,9.36E1,1.323E2,4.94E1,4.6615233E0,-1.8060535E0,-1.0241427E0,-4.9627885E-1,2.7610445E-1,5.02816E-1,1.6648419E0],"split_indices":[43,11,43,43,43,7,0,0,0,0,0,0,0],"split_type":[0,0,0,0,0,0,0,0,0,0,0,0,0],"sum_hessian":[9.1E1,6.9E1,2.2E1,3.2E1,3.7E1,1.6E1,6E0,1.3E1,1.9E1,2.2E1,1.5E1,2E0,1.4E1],"tree_param":{"num_deleted":"0","num_feature":"60","num_nodes":"13","size_leaf_vector":"1"}},{"base_weights":[-2.4529622E0,-1.4051E1,4.613019E1,-2.5478415E1,-2.2332778E0,3.0064857E1,3.933701E0,-1.72491E0,-9.765549E-1,-4.2934164E-1,3.6170778E-1,9.1303456E-1,1.8787022E0],"categories":[],"categories_nodes":[],"categories_segments":[],"categories_sizes":[],"default_left":[0,0,0,0,0,0,0,0,0,0,0,0,0],"id":12,"left_children":[1,3,5,7,9,11,-1,-1,-1,-1,-1,-1,-1],"loss_changes":[4.967E4,9.531366E3,6.522742E3,1.2573789E3,2.2275857E3,4.6618945E2,0E0,0E0,0E0,0E0,0E0,0E0,0E0],"parents":[2147483647,0,0,1,1,2,2,3,3,4,4,5,5],"right_children":[2,4,6,8,10,12,-1,-1,-1,-1,-1,-1,-1],"split_conditions":[1.703E2,1.1656E2,2.1713E2,9.18E1,1.413E2,8.87E0,3.933701E0,-1.72491E0,-9.765549E-1,-4.2934164E-1,3.6170778E-1,9.1303456E-1,1.8787022E0],"split_indices":[43,43,43,43,43,42,0,0,0,0,0,0,0],"split_type":[0,0,0,0,0,0,0,0,0,0,0,0,0],"sum_hessian":[8.6E1,7E1,1.6E1,3.5E1,3.5E1,1.2E1,4E0,1.2E1,2.3E1,2.1E1,1.4E1,6E0,6E0],"tree_param":{"num_deleted":"0","num_feature":"60","num_nodes":"13","size_leaf_vector":"1"}},{"base_weights":[-3.55044E0,-1.3764784E1,5.04818E1,-2.20713E1,2.1532037E0,2.9076881E1,5.1038055E0,-1.3973101E0,-7.304281E-1,-1.840979E-1,4.1256815E-1,7.899218E-1,1.8152283E0],"categories":[],"categories_nodes":[],"categories_segments":[],"categories_sizes":[],"default_left":[0,0,0,0,0,0,0,0,0,0,0,0,0],"id":13,"left_children":[1,3,5,7,9,11,-1,-1,-1,-1,-1,-1,-1],"loss_changes":[5.2021934E4,1.04931455E4,1.3597527E4,1.8715762E3,1.026726E3,5.7811426E2,0E0,0E0,0E0,0E0,0E0,0E0,0E0],"parents":[2147483647,0,0,1,1,2,2,3,3,4,4,5,5],"right_children":[2,4,6,8,10,12,-1,-1,-1,-1,-1,-1,-1],"split_conditions":[1.764E2,1.251E2,2.1713E2,1.042E2,1.461E2,1.187314E3,5.1038055E0,-1.3973101E0,-7.304281E-1,-1.840979E-1,4.1256815E-1,7.899218E-1,1.8152283E0],"split_indices":[43,43,43,43,43,33,0,0,0,0,0,0,0],"split_type":[0,0,0,0,0,0,0,0,0,0,0,0,0],"sum_hessian":[9.2E1,7.8E1,1.4E1,5.1E1,2.7E1,1.1E1,3E0,2.7E1,2.4E1,1.4E1,1.3E1,5E0,6E0],"tree_param":{"num_deleted":"0","num_feature":"60","num_nodes":"13","size_leaf_vector":"1"}},{"base_weights":[-2.4709582E0,-1.4617225E1,2.6411709E1,-2.3412334E1,-3.1951163E0,1.3836486E1,3.888991E1,-1.2836429E0,-2.1312575E-1,-2.6642653E-1,4.0554902E-1,8.5483885E-1,3.8340214E-1,8.440315E-1,2.0678499E0],"categories":[],"categories_nodes":[],"categories_segments":[],"categories_sizes":[],"default_left":[0,0,0,0,0,0,0,0,0,0,0,0,0,0,0],"id":14,"left_children":[1,3,5,7,9,11,13,-1,-1,-1,-1,-1,-1,-1,-1],"loss_changes":[3.1959559E4,6.354552E3,3.6986367E3,1.448959E3,7.4271674E2,1.7056519E2,7.751953E0,0E0,0E0,0E0,0E0,0E0,0E0,0E0,0E0],"parents":[2147483647,0,0,1,1,2,2,3,3,4,4,5,5,6,6],"right_children":[2,4,6,8,10,12,14,-1,-1,-1,-1,-1,-1,-1,-1],"split_conditions":[1.535E2,1.1656E2,1.8439E2,9.520844E0,1.16E1,1.32E0,4.11E1,-1.2836429E0,-2.1312575E-1,-2.6642653E-1,4.0554902E-1,8.5483885E-1,3.8340214E-1,8.440315E-1,2.0678499E0],"split_indices":[43,43,43,15,15,10,9,0,0,0,0,0,0,0,0],"split_type":[0,0,0,0,0,0,0,0,0,0,0,0,0,0,0],"sum_hessian":[8.9E1,6.3E1,2.6E1,3.5E1,2.8E1,1.4E1,1.2E1,3.1E1,4E0,2.4E1,4E0,8E0,6E0,2E0,1E1],"tree_param":{"num_deleted":"0","num_feature":"60","num_nodes":"15","size_leaf_vector":"1"}},{"base_weights":[3.8059795E0,-7.136954E0,5.759884E1,-1.5157126E1,8.870679E0,1.7583395E0,8.912446E1,-9.707937E-1,-4.6010718E-1,5.9219893E-2,7.4703723E-1,1.2975289E0,4.8284564E0],"categories":[],"categories_nodes":[],"categories_segments":[],"categories_sizes":[],"default_left":[0,0,0,0,0,0,0,0,0,0,0,0,0],"id":15,"left_children":[1,3,5,7,9,-1,11,-1,-1,-1,-1,-1,-1],"loss_changes":[5.5744336E4,1.0276788E4,8.1807305E3,1.1654531E3,1.2420225E3,0E0,3.1582812E2,0E0,0E0,0E0,0E0,0E0,0E0],"parents":[2147483647,0,0,1,1,2,2,3,3,4,4,6,6],"right_children":[2,4,6,8,10,-1,12,-1,-1,-1,-1,-1,-1],"split_conditions":[1.942E2,1.323E2,1.25346664E2,5.9E1,1.535E2,1.7583395E0,3.917952E1,-9.707937E-1,-4.6010718E-1,5.9219893E-2,7.4703723E-1,1.2975289E0,4.8284564E0],"split_indices":[43,43,3,11,43,0,1,0,0,0,0,0,0],"split_type":[0,0,0,0,0,0,0,0,0,0,0,0,0],"sum_hessian":[9.3E1,7.8E1,1.5E1,5.2E1,2.6E1,1E1,5E0,2.9E1,2.3E1,1.2E1,1.4E1,1E0,4E0],"tree_param":{"num_deleted":"0","num_feature":"60","num_nodes":"13","size_leaf_vector":"1"}},{"base_weights":[1.6560663E0,-1.2108691E1,2.9124245E1,-2.0078707E1,-3.3950183E0,1.7690098E1,5.9266083E1,-1.0454754E0,-4.9332705E-1,-2.6241407E-1,4.2866555E-1,5.9065855E-1,1.2106713E0,1.7843217E0,3.9405072E0],"categories":[],"categories_nodes":[],"categories_segments":[],"categories_sizes":[],"default_left":[0,0,0,0,0,0,0,0,0,0,0,0,0,0,0],"id":16,"left_children":[1,3,5,7,9,11,13,-1,-1,-1,-1,-1,-1,-1,-1],"loss_changes":[3.060008E4,3.6820308E3,8.257025E3,3.1253906E1,6.4386743E2,5.190425E2,4.1344336E2,0E0,0E0,0E0,0E0,0E0,0E0,0E0,0E0],"parents":[2147483647,0,0,1,1,2,2,3,3,4,4,5,5,6,6],"right_children":[2,4,6,8,10,12,14,-1,-1,-1,-1,-1,-1,-1,-1],"split_conditions":[1.522E2,1.1656E2,2.39E1,8.4E0,1.16E1,1.8439E2,8.749161E1,-1.0454754E0,-4.9332705E-1,-2.6241407E-1,4.2866555E-1,5.9065855E-1,1.2106713E0,1.7843217E0,3.9405072E0],"split_indices":[43,43,15,15,15,43,1,0,0,0,0,0,0,0,0],"split_type":[0,0,0,0,0,0,0,0,0,0,0,0,0,0,0],"sum_hessian":[7.9E1,5.3E1,2.6E1,2.7E1,2.6E1,2E1,6E0,2.4E1,3E0,2.3E1,3E0,1.2E1,8E0,4E0,2E0],"tree_param":{"num_deleted":"0","num_feature":"60","num_nodes":"15","size_leaf_vector":"1"}},{"base_weights":[3.542529E-1,-1.31952505E1,4.4549778E1,-1.9633755E1,2.4094543E0,2.7719862E1,4.3064785E0,-1.3991846E0,-7.1749336E-1,-1.04334034E-1,3.332322E-1,4.874601E-1,1.486732E0],"categories":[],"categories_nodes":[],"categories_segments":[],"categories_sizes":[],"default_left":[0,0,0,0,0,0,0,0,0,0,0,0,0],"id":17,"left_children":[1,3,5,7,9,11,-1,-1,-1,-1,-1,-1,-1],"loss_changes":[4.849404E4,6.276506E3,1.0908406E4,1.5397227E3,3.774132E2,2.5321484E2,0E0,0E0,0E0,0E0,0E0,0E0,0E0],"parents":[2147483647,0,0,1,1,2,2,3,3,4,4,5,5],"right_children":[2,4,6,8,10,12,-1,-1,-1,-1,-1,-1,-1],"split_conditions":[1.703E2,1.29E2,2.2463E2,9.45E1,1.461E2,3.14E1,4.3064785E0,-1.3991846E0,-7.1749336E-1,-1.04334034E-1,3.332322E-1,4.874601E-1,1.486732E0],"split_indices":[43,43,43,43,43,7,0,0,0,0,0,0,0],"split_type":[0,0,0,0,0,0,0,0,0,0,0,0,0],"sum_hessian":[7.9E1,6.1E1,1.8E1,4.3E1,1.8E1,1.4E1,4E0,1.5E1,2.8E1,9E0,9E0,2E0,1.2E1],"tree_param":{"num_deleted":"0","num_feature":"60","num_nodes":"13","size_leaf_vector":"1"}},{"base_weights":[-3.1007626E0,-1.2084791E1,2.8742956E1,-1.9721619E1,-3.1157103E0,1.3299126E1,2.4157917E0,-1.0653743E0,-2.8138748E-1,-2.9920658E-1,7.684579E-2,7.568319E-1,2.9199716E-1],"categories":[],"categories_nodes":[],"categories_segments":[],"categories_sizes":[],"default_left":[0,0,0,0,0,0,0,0,0,0,0,0,0],"id":18,"left_children":[1,3,5,7,9,11,-1,-1,-1,-1,-1,-1,-1],"loss_changes":[2.4664568E4,4.5277393E3,5.1007656E3,6.847217E2,4.362593E2,7.607886E1,0E0,0E0,0E0,0E0,0E0,0E0,0E0],"parents":[2147483647,0,0,1,1,2,2,3,3,4,4,5,5],"right_children":[2,4,6,8,10,12,-1,-1,-1,-1,-1,-1,-1],"split_conditions":[1.640047E2,1.14E2,8.6E0,9.9E0,1.361E2,1.820658E3,2.4157917E0,-1.0653743E0,-2.8138748E-1,-2.9920658E-1,7.684579E-2,7.568319E-1,2.9199716E-1],"split_indices":[43,43,15,15,43,34,0,0,0,0,0,0,0],"split_type":[0,0,0,0,0,0,0,0,0,0,0,0,0],"sum_hessian":[8.4E1,6.6E1,1.8E1,3.5E1,3.1E1,1.1E1,7E0,3.1E1,4E0,1.9E1,1.2E1,8E0,3E0],"tree_param":{"num_deleted":"0","num_feature":"60","num_nodes":"13","size_leaf_vector":"1"}},{"base_weights":[1.546177E-1,-7.8760557E0,4.8327614E1,-1.8380173E1,7.8420955E-1,1.3928571E0,3.9801521E0,-1.2974633E0,-6.441824E-1,-2.0069657E-1,3.2095468E-1],"categories":[],"categories_nodes":[],"categories_segments":[],"categories_sizes":[],"default_left":[0,0,0,0,0,0,0,0,0,0,0],"id":19,"left_children":[1,3,5,7,9,-1,-1,-1,-1,-1,-1],"loss_changes":[3.7906207E4,7.655762E3,6.7456055E3,1.2466201E3,1.2965033E3,0E0,0E0,0E0,0E0,0E0,0E0],"parents":[2147483647,0,0,1,1,2,2,3,3,4,4],"right_children":[2,4,6,8,10,-1,-1,-1,-1,-1,-1],"split_conditions":[1.9129797E2,1.1656E2,2.2463E2,9.36E1,1.43E2,1.3928571E0,3.9801521E0,-1.2974633E0,-6.441824E-1,-2.0069657E-1,3.2095468E-1],"split_indices":[43,43,43,43,43,0,0,0,0,0,0],"split_type":[0,0,0,0,0,0,0,0,0,0,0],"sum_hessian":[9.6E1,8.3E1,1.3E1,3.7E1,4.6E1,9E0,4E0,1.4E1,2.3E1,2.5E1,2.1E1],"tree_param":{"num_deleted":"0","num_feature":"60","num_nodes":"11","size_leaf_vector":"1"}},{"base_weights":[3.2725618E0,-5.317661E0,5.0597443E1,-1.3164678E1,8.248282E0,1.3773369E0,4.098461E0,-9.480745E-1,-4.3804795E-1,1.5317118E-1,7.755701E-1],"categories":[],"categories_nodes":[],"categories_segments":[],"categories_sizes":[],"default_left":[0,0,0,0,0,0,0,0,0,0,0],"id":20,"left_children":[1,3,5,7,9,-1,-1,-1,-1,-1,-1],"loss_changes":[3.4417684E4,7.773144E3,7.1428555E3,1.0081465E3,9.6925476E2,0E0,0E0,0E0,0E0,0E0,0E0],"parents":[2147483647,0,0,1,1,2,2,3,3,4,4],"right_children":[2,4,6,8,10,-1,-1,-1,-1,-1,-1],"split_conditions":[1.942E2,1.361E2,1.2497819E2,1.044146E2,7.8E0,1.3773369E0,4.098461E0,-9.480745E-1,-4.3804795E-1,1.5317118E-1,7.755701E-1],"split_indices":[43,43,3,43,15,0,0,0,0,0,0],"split_type":[0,0,0,0,0,0,0,0,0,0,0],"sum_hessian":[8.3E1,7.1E1,1.2E1,4.5E1,2.6E1,8E0,4E0,1.8E1,2.7E1,1.6E1,1E1],"tree_param":{"num_deleted":"0","num_feature":"60","num_nodes":"11","size_leaf_vector":"1"}},{"base_weights":[1.9618114E0,-8.015229E0,3.441522E1,-1.4444002E1,3.513733E0,2.1905502E1,3.7925136E0,-1.0844554E0,-4.3551093E-1,-8.2405925E-2,3.805583E-1,3.7983075E-1,1.2311599E0],"categories":[],"categories_nodes":[],"categories_segments":[],"categories_sizes":[],"default_left":[0,0,0,0,0,0,0,0,0,0,0,0,0],"id":21,"left_children":[1,3,5,7,9,11,-1,-1,-1,-1,-1,-1,-1],"loss_changes":[2.617896E4,4.6460107E3,8.1869375E3,1.4727578E3,4.9900195E2,4.3514307E2,0E0,0E0,0E0,0E0,0E0,0E0,0E0],"parents":[2147483647,0,0,1,1,2,2,3,3,4,4,5,5],"right_children":[2,4,6,8,10,12,-1,-1,-1,-1,-1,-1,-1],"split_conditions":[1.703E2,1.2755079E2,1.2933E2,9.9E1,5.8E0,3.7E0,3.7925136E0,-1.0844554E0,-4.3551093E-1,-8.2405925E-2,3.805583E-1,3.7983075E-1,1.2311599E0],"split_indices":[43,43,11,43,15,15,0,0,0,0,0,0,0],"split_type":[0,0,0,0,0,0,0,0,0,0,0,0,0],"sum_hessian":[7.9E1,6.1E1,1.8E1,3.9E1,2.2E1,1.5E1,3E0,1.6E1,2.3E1,1E1,1.2E1,3E0,1.2E1],"tree_param":{"num_deleted":"0","num_feature":"60","num_nodes":"13","size_leaf_vector":"1"}},{"base_weights":[1.8853513E0,-5.748104E0,4.145363E1,-1.3004212E1,3.5380924E0,2.5804554E1,3.9018724E0,-1.193693E0,-5.329847E-1,-2.892959E-2,4.8772237E-1,6.2169284E-1,1.4439957E0],"categories":[],"categories_nodes":[],"categories_segments":[],"categories_sizes":[],"default_left":[0,0,0,0,0,0,0,0,0,0,0,0,0],"id":22,"left_children":[1,3,5,7,9,11,-1,-1,-1,-1,-1,-1,-1],"loss_changes":[2.8026207E4,5.3017783E3,6.5738223E3,8.66813E2,9.013208E2,1.3434766E2,0E0,0E0,0E0,0E0,0E0,0E0,0E0],"parents":[2147483647,0,0,1,1,2,2,3,3,4,4,5,5],"right_children":[2,4,6,8,10,12,-1,-1,-1,-1,-1,-1,-1],"split_conditions":[1.942E2,1.2755079E2,2.4101E2,8.84E1,1.535E2,3.8E0,3.9018724E0,-1.193693E0,-5.329847E-1,-2.892959E-2,4.8772237E-1,6.2169284E-1,1.4439957E0],"split_indices":[43,43,52,43,43,15,0,0,0,0,0,0,0],"split_type":[0,0,0,0,0,0,0,0,0,0,0,0,0],"sum_hessian":[9.1E1,7.7E1,1.4E1,4.3E1,3.4E1,1.1E1,3E0,6E0,3.7E1,2.1E1,1.3E1,3E0,8E0],"tree_param":{"num_deleted":"0","num_feature":"60","num_nodes":"13","size_leaf_vector":"1"}},{"base_weights":[1.077789E0,-9.320607E0,3.584295E1,-1.546652E1,-2.2583623E0,2.208207E1,4.0482855E0,-1.1063199E0,-5.973865E-1,-2.929024E-1,1.7058568E-1,4.3134102E-1,1.3135656E0],"categories":[],"categories_nodes":[],"categories_segments":[],"categories_sizes":[],"default_left":[0,0,0,0,0,0,0,0,0,0,0,0,0],"id":23,"left_children":[1,3,5,7,9,11,-1,-1,-1,-1,-1,-1,-1],"loss_changes":[3.6122766E4,3.3071743E3,1.2493473E4,6.9646387E2,7.751742E2,8.443418E2,0E0,0E0,0E0,0E0,0E0,0E0,0E0],"parents":[2147483647,0,0,1,1,2,2,3,3,4,4,5,5],"right_children":[2,4,6,8,10,12,-1,-1,-1,-1,-1,-1,-1],"split_conditions":[1.703E2,5.63E1,1.2933E2,9.24E1,1.361E2,6.126E0,4.0482855E0,-1.1063199E0,-5.973865E-1,-2.929024E-1,1.7058568E-1,4.3134102E-1,1.3135656E0],"split_indices":[43,11,11,43,43,42,0,0,0,0,0,0,0],"split_type":[0,0,0,0,0,0,0,0,0,0,0,0,0],"sum_hessian":[9.8E1,7.6E1,2.2E1,4E1,3.6E1,1.8E1,4E0,1.2E1,2.8E1,2.2E1,1.4E1,5E0,1.3E1],"tree_param":{"num_deleted":"0","num_feature":"60","num_nodes":"13","size_leaf_vector":"1"}},{"base_weights":[-1.5584093E0,-8.924725E0,1.9647469E1,-1.3625353E1,-2.0586798E0,1.0274128E1,4.4492916E1,-7.4940586E-1,-1.8160662E-1,-2.554856E-1,6.786657E-2,2.6081356E-1,6.1841834E-1,1.2048218E0,2.8428626E0],"categories":[],"categories_nodes":[],"categories_segments":[],"categories_sizes":[],"default_left":[0,0,0,0,0,0,0,0,0,0,0,0,0,0,0],"id":24,"left_children":[1,3,5,7,9,11,13,-1,-1,-1,-1,-1,-1,-1,-1],"loss_changes":[1.3921756E4,2.102082E3,4.8992275E3,4.766787E2,2.9876166E2,1.2614563E2,1.4307617E2,0E0,0E0,0E0,0E0,0E0,0E0,0E0,0E0],"parents":[2147483647,0,0,1,1,2,2,3,3,4,4,5,5,6,6],"right_children":[2,4,6,8,10,12,14,-1,-1,-1,-1,-1,-1,-1,-1],"split_conditions":[1.5667E2,1.2231E2,1.83E1,8.561671E0,1.351E2,2.08E1,1.0887849E2,-7.4940586E-1,-1.8160662E-1,-2.554856E-1,6.786657E-2,2.6081356E-1,6.1841834E-1,1.2048218E0,2.8428626E0],"split_indices":[43,43,15,15,43,12,3,0,0,0,0,0,0,0,0],"split_type":[0,0,0,0,0,0,0,0,0,0,0,0,0,0,0],"sum_hessian":[8.7E1,6.5E1,2.2E1,3.8E1,2.7E1,1.7E1,5E0,3.3E1,5E0,1.4E1,1.3E1,6E0,1.1E1,3E0,2E0],"tree_param":{"num_deleted":"0","num_feature":"60","num_nodes":"15","size_leaf_vector":"1"}},{"base_weights":[2.7785888E-1,-3.5176542E0,5.8673187E1,-1.2306695E1,8.5739975E0,8.4303516E-1,3.2455566E0,-9.113709E-1,-3.6394796E-1,2.3049052E-1,9.316481E-1],"categories":[],"categories_nodes":[],"categories_segments":[],"categories_sizes":[],"default_left":[0,0,0,0,0,0,0,0,0,0,0],"id":25,"left_children":[1,3,5,7,9,-1,-1,-1,-1,-1,-1],"loss_changes":[1.815925E4,8.288617E3,2.0967188E2,1.2068755E3,1.230001E3,0E0,0E0,0E0,0E0,0E0,0E0],"parents":[2147483647,0,0,1,1,2,2,3,3,4,4],"right_children":[2,4,6,8,10,-1,-1,-1,-1,-1,-1],"split_conditions":[3.24E1,1.2755079E2,1.2765487E2,1.04E2,1.885E2,8.4303516E-1,3.2455566E0,-9.113709E-1,-3.6394796E-1,2.3049052E-1,9.316481E-1],"split_indices":[15,43,2,43,43,0,0,0,0,0,0],"split_type":[0,0,0,0,0,0,0,0,0,0,0],"sum_hessian":[8E1,7.6E1,4E0,4.4E1,3.2E1,1E0,3E0,1.9E1,2.5E1,2.4E1,8E0],"tree_param":{"num_deleted":"0","num_feature":"60","num_nodes":"11","size_leaf_vector":"1"}},{"base_weights":[-7.488783E-3,-9.420425E0,1.8818644E1,-1.1837597E0,-6.6661587E0,1.0819709E1,3.8463383E1,-4.7884592E-1,3.8203787E-2,3.6417738E-1,8.678345E-1,1.2249852E0,2.6784806E0],"categories":[],"categories_nodes":[],"categories_segments":[],"categories_sizes":[],"default_left":[0,0,0,0,0,0,0,0,0,0,0,0,0],"id":26,"left_children":[1,3,5,-1,7,9,11,-1,-1,-1,-1,-1,-1],"loss_changes":[1.5417269E4,2.1193413E3,4.1408096E3,0E0,1.088699E3,3.8212988E2,3.7506934E2,0E0,0E0,0E0,0E0,0E0,0E0],"parents":[2147483647,0,0,1,1,2,2,4,4,5,5,6,6],"right_children":[2,4,6,-1,8,10,12,-1,-1,-1,-1,-1,-1],"split_conditions":[1.535E2,8.68E1,2.17E1,-1.1837597E0,1.251E2,2.0319449E2,1.18265755E2,-4.7884592E-1,3.8203787E-2,3.6417738E-1,8.678345E-1,1.2249852E0,2.6784806E0],"split_indices":[43,43,15,0,43,43,3,0,0,0,0,0,0],"split_type":[0,0,0,0,0,0,0,0,0,0,0,0,0],"sum_hessian":[8.5E1,5.7E1,2.8E1,8E0,4.9E1,2.1E1,7E0,3.5E1,1.4E1,1.5E1,6E0,5E0,2E0],"tree_param":{"num_deleted":"0","num_feature":"60","num_nodes":"13","size_leaf_vector":"1"}},{"base_weights":[6.296106E-1,-3.6443253E0,6.392139E1,-8.490437E0,1.3499281E1,6.5470314E-1,3.5734022E0,-7.613482E-1,-1.9532044E-1,4.3504363E-1,1.0583816E0],"categories":[],"categories_nodes":[],"categories_segments":[],"categories_sizes":[],"default_left":[0,0,0,0,0,0,0,0,0,0,0],"id":27,"left_children":[1,3,5,7,9,-1,-1,-1,-1,-1,-1],"loss_changes":[2.566042E4,7.5087197E3,1.3656484E3,2.1021475E3,5.517407E2,0E0,0E0,0E0,0E0,0E0,0E0],"parents":[2147483647,0,0,1,1,2,2,3,3,4,4],"right_children":[2,4,6,8,10,-1,-1,-1,-1,-1,-1],"split_conditions":[2.4103E2,1.617713E2,9.701E-3,1.044146E2,8.6E0,6.5470314E-1,3.5734022E0,-7.613482E-1,-1.9532044E-1,4.3504363E-1,1.0583816E0],"split_indices":[52,43,2,43,15,0,0,0,0,0,0],"split_type":[0,0,0,0,0,0,0,0,0,0,0],"sum_hessian":[9.3E1,8.8E1,5E0,6.9E1,1.9E1,1E0,4E0,2.7E1,4.2E1,1.3E1,6E0],"tree_param":{"num_deleted":"0","num_feature":"60","num_nodes":"11","size_leaf_vector":"1"}},{"base_weights":[2.3695323E-1,-6.846415E0,2.706672E1,-1.4611219E1,-1.2698903E0,1.7855753E1,2.8571954E0,-1.1351243E0,-5.5807984E-1,-1.970704E-1,3.9701298E-1,2.0941238E-1,9.754546E-1],"categories":[],"categories_nodes":[],"categories_segments":[],"categories_sizes":[],"default_left":[0,0,0,0,0,0,0,0,0,0,0,0,0],"id":28,"left_children":[1,3,5,7,9,11,-1,-1,-1,-1,-1,-1,-1],"loss_changes":[1.7289373E4,3.0990908E3,4.243412E3,5.83959E2,1.0893142E3,2.7984375E2,0E0,0E0,0E0,0E0,0E0,0E0,0E0],"parents":[2147483647,0,0,1,1,2,2,3,3,4,4,5,5],"right_children":[2,4,6,8,10,12,-1,-1,-1,-1,-1,-1,-1],"split_conditions":[1.724E2,1.168E2,9.899E1,8.29E1,1.15E1,1E0,2.8571954E0,-1.1351243E0,-5.5807984E-1,-1.970704E-1,3.9701298E-1,2.0941238E-1,9.754546E-1],"split_indices":[43,53,44,43,15,14,0,0,0,0,0,0,0],"split_type":[0,0,0,0,0,0,0,0,0,0,0,0,0],"sum_hessian":[8.9E1,7.1E1,1.8E1,2.9E1,4.2E1,1.5E1,3E0,7E0,2.2E1,3.3E1,9E0,2E0,1.3E1],"tree_param":{"num_deleted":"0","num_feature":"60","num_nodes":"13","size_leaf_vector":"1"}},{"base_weights":[1.4523823E0,-3.0586183E0,3.143033E0,-8.930147E0,1.0685674E1,-8.639119E-1,-3.067258E-1,3.1425762E-1,8.32897E-1],"categories":[],"categories_nodes":[],"categories_segments":[],"categories_sizes":[],"default_left":[0,0,0,0,0,0,0,0,0],"id":29,"left_children":[1,3,-1,5,7,-1,-1,-1,-1],"loss_changes":[2.4292379E4,6.712826E3,0E0,1.2476216E3,5.523296E2,0E0,0E0,0E0,0E0],"parents":[2147483647,0,0,1,1,3,3,4,4],"right_children":[2,4,-1,6,8,-1,-1,-1,-1],"split_conditions":[8.958443E1,1.4954E2,3.143033E0,9.3E1,1.47E1,-8.639119E-1,-3.067258E-1,3.1425762E-1,8.32897E-1],"split_indices":[44,43,0,43,15,0,0,0,0],"split_type":[0,0,0,0,0,0,0,0,0],"sum_hessian":[8.6E1,8.1E1,5E0,5.7E1,2.4E1,1.3E1,4.4E1,1.5E1,9E0],"tree_param":{"num_deleted":"0","num_feature":"60","num_nodes":"9","size_leaf_vector":"1"}},{"base_weights":[-8.9697987E-1,-5.386756E0,2.541994E1,-1.0095274E1,4.0563664E0,5.647555E-1,1.6418036E0,-9.611601E-1,-4.1031066E-1,4.1151647E-2,3.613195E-1],"categories":[],"categories_nodes":[],"categories_segments":[],"categories_sizes":[],"default_left":[0,0,0,0,0,0,0,0,0,0,0],"id":30,"left_children":[1,3,5,7,9,-1,-1,-1,-1,-1,-1],"loss_changes":[1.0534755E4,3.4201475E3,9.908828E2,7.216543E2,2.605458E2,0E0,0E0,0E0,0E0,0E0,0E0],"parents":[2147483647,0,0,1,1,2,2,3,3,4,4],"right_children":[2,4,6,8,10,-1,-1,-1,-1,-1,-1],"split_conditions":[1.81E1,1.326E2,1.85E2,8.84E1,1.640047E2,5.647555E-1,1.6418036E0,-9.611601E-1,-4.1031066E-1,4.1151647E-2,3.613195E-1],"split_indices":[15,43,43,43,43,0,0,0,0,0,0],"split_type":[0,0,0,0,0,0,0,0,0,0,0],"sum_hessian":[8.7E1,7.5E1,1.2E1,5E1,2.5E1,5E0,7E0,7E0,4.3E1,1.3E1,1.2E1],"tree_param":{"num_deleted":"0","num_feature":"60","num_nodes":"11","size_leaf_vector":"1"}},{"base_weights":[2.1641471E0,-5.184626E0,2.6207062E1,-1.1494705E1,1.6491232E0,1.5797444E1,2.8179176E0,-9.3050826E-1,-4.3985343E-1,-5.7567365E-2,3.4396324E-1,3.7183E-1,9.3307066E-1],"categories":[],"categories_nodes":[],"categories_segments":[],"categories_sizes":[],"default_left":[0,0,0,0,0,0,0,0,0,0,0,0,0],"id":31,"left_children":[1,3,5,7,9,11,-1,-1,-1,-1,-1,-1,-1],"loss_changes":[1.5860922E4,2.9943398E3,5.7008125E3,5.2730273E2,5.059136E2,2.6829102E2,0E0,0E0,0E0,0E0,0E0,0E0,0E0],"parents":[2147483647,0,0,1,1,2,2,3,3,4,4,5,5],"right_children":[2,4,6,8,10,12,-1,-1,-1,-1,-1,-1,-1],"split_conditions":[1.714E2,1.193E2,2.2463E2,8.75E1,5.965133E0,1.052426E3,2.8179176E0,-9.3050826E-1,-4.3985343E-1,-5.7567365E-2,3.4396324E-1,3.7183E-1,9.3307066E-1],"split_indices":[43,43,43,43,15,33,0,0,0,0,0,0,0],"split_type":[0,0,0,0,0,0,0,0,0,0,0,0,0],"sum_hessian":[8.8E1,6.8E1,2E1,3.5E1,3.3E1,1.6E1,4E0,8E0,2.7E1,2.2E1,1.1E1,5E0,1.1E1],"tree_param":{"num_deleted":"0","num_feature":"60","num_nodes":"13","size_leaf_vector":"1"}},{"base_weights":[2.851974E-1,-2.8569324E0,3.9745514E1,-9.168827E0,4.2744E0,8.1341475E-1,2.6643178E0,-8.142201E-1,-3.527511E-1,1.0832192E-1,5.8814394E-1],"categories":[],"categories_nodes":[],"categories_segments":[],"categories_sizes":[],"default_left":[0,0,0,0,0,0,0,0,0,0,0],"id":32,"left_children":[1,3,5,7,9,-1,-1,-1,-1,-1,-1],"loss_changes":[1.1768558E4,4.0002664E3,1.3584307E3,5.920371E2,6.3750433E2,0E0,0E0,0E0,0E0,0E0,0E0],"parents":[2147483647,0,0,1,1,2,2,3,3,4,4],"right_children":[2,4,6,8,10,-1,-1,-1,-1,-1,-1],"split_conditions":[1.876024E3,1.2755079E2,1.3871576E2,9.1E1,1.8439E2,8.1341475E-1,2.6643178E0,-8.142201E-1,-3.527511E-1,1.0832192E-1,5.8814394E-1],"split_indices":[34,43,3,43,43,0,0,0,0,0,0],"split_type":[0,0,0,0,0,0,0,0,0,0,0],"sum_hessian":[9.3E1,8.7E1,6E0,4.6E1,4.1E1,3E0,3E0,9E0,3.7E1,3.3E1,8E0],"tree_param":{"num_deleted":"0","num_feature":"60","num_nodes":"11","size_leaf_vector":"1"}},{"base_weights":[-2.0615613E0,-7.2148886E0,8.311595E0,-1.0587053E1,-2.1385424E0,4.9841447E0,9.5039874E-1,-5.563423E-1,2.2113648E-1,-1.5368031E-1,1.8863545E-1,1.1645154E-1,3.8332164E-1],"categories":[],"categories_nodes":[],"categories_segments":[],"categories_sizes":[],"default_left":[0,0,0,0,0,0,0,0,0,0,0,0,0],"id":33,"left_children":[1,3,5,7,9,11,-1,-1,-1,-1,-1,-1,-1],"loss_changes":[4.9779434E3,1.0386919E3,1.0086033E3,3.489912E2,1.553081E2,1.6018921E2,0E0,0E0,0E0,0E0,0E0,0E0,0E0],"parents":[2147483647,0,0,1,1,2,2,3,3,4,4,5,5],"right_children":[2,4,6,8,10,12,-1,-1,-1,-1,-1,-1,-1],"split_conditions":[1.43E2,1.139E2,2.17E1,1.25E1,9.3E0,3.4958334E2,9.5039874E-1,-5.563423E-1,2.2113648E-1,-1.5368031E-1,1.8863545E-1,1.1645154E-1,3.8332164E-1],"split_indices":[43,43,15,15,15,19,0,0,0,0,0,0,0],"split_type":[0,0,0,0,0,0,0,0,0,0,0,0,0],"sum_hessian":[9.1E1,6.1E1,3E1,3.6E1,2.5E1,2.4E1,6E0,3.5E1,1E0,2.2E1,3E0,1.3E1,1.1E1],"tree_param":{"num_deleted":"0","num_feature":"60","num_nodes":"13","size_leaf_vector":"1"}},{"base_weights":[-1.4419858E0,-6.9913125E0,9.334779E0,-1.294457E1,-3.5173724E0,4.25724E0,1.48335905E1,-9.131083E-1,-4.8000273E-1,-3.2479987E-1,-3.9838556E-2,5.0504047E-2,3.515686E-1,8.708478E-1,3.3500716E-1],"categories":[],"categories_nodes":[],"categories_segments":[],"categories_sizes":[],"default_left":[0,0,0,0,0,0,0,0,0,0,0,0,0,0,0],"id":34,"left_children":[1,3,5,7,9,11,13,-1,-1,-1,-1,-1,-1,-1,-1],"loss_changes":[5.268192E3,1.1539824E3,7.744629E2,1.981626E2,3.0276294E2,1.4603458E2,1.7746729E2,0E0,0E0,0E0,0E0,0E0,0E0,0E0,0E0],"parents":[2147483647,0,0,1,1,2,2,3,3,4,4,5,5,6,6],"right_children":[2,4,6,8,10,12,14,-1,-1,-1,-1,-1,-1,-1,-1],"split_conditions":[1.424E2,1.125E2,1.825E2,4.45E1,2.5E0,5.14E0,4.8958334E2,-9.131083E-1,-4.8000273E-1,-3.2479987E-1,-3.9838556E-2,5.0504047E-2,3.515686E-1,8.708478E-1,3.3500716E-1],"split_indices":[43,53,52,11,15,15,24,0,0,0,0,0,0,0,0],"split_type":[0,0,0,0,0,0,0,0,0,0,0,0,0,0,0],"sum_hessian":[8.6E1,5.7E1,2.9E1,2E1,3.7E1,1.6E1,1.3E1,6E0,1.4E1,1.7E1,2E1,8E0,8E0,9E0,4E0],"tree_param":{"num_deleted":"0","num_feature":"60","num_nodes":"15","size_leaf_vector":"1"}},{"base_weights":[9.7585803E-1,-2.7631848E0,2.2472193E1,-7.146322E0,2.732549E0,1.4224514E1,2.2611475E0,-4.3192902E-1,-3.5743162E-2,8.254586E-3,2.9868278E-1,3.329691E-1,8.114508E-1],"categories":[],"categories_nodes":[],"categories_segments":[],"categories_sizes":[],"default_left":[0,0,0,0,0,0,0,0,0,0,0,0,0],"id":35,"left_children":[1,3,5,7,9,11,-1,-1,-1,-1,-1,-1,-1],"loss_changes":[7.054782E3,1.8261694E3,1.7960581E3,3.9691553E2,2.8194147E2,5.873242E1,0E0,0E0,0E0,0E0,0E0,0E0,0E0],"parents":[2147483647,0,0,1,1,2,2,3,3,4,4,5,5],"right_children":[2,4,6,8,10,12,-1,-1,-1,-1,-1,-1,-1],"split_conditions":[1.942E2,1.2755079E2,2.5108821E2,4.8E0,5.8E0,4.7E0,2.2611475E0,-4.3192902E-1,-3.5743162E-2,8.254586E-3,2.9868278E-1,3.329691E-1,8.114508E-1],"split_indices":[43,43,7,15,15,15,0,0,0,0,0,0,0],"split_type":[0,0,0,0,0,0,0,0,0,0,0,0,0],"sum_hessian":[8.6E1,7.4E1,1.2E1,4.1E1,3.3E1,1E1,2E0,3.3E1,8E0,1.9E1,1.4E1,3E0,7E0],"tree_param":{"num_deleted":"0","num_feature":"60","num_nodes":"13","size_leaf_vector":"1"}},{"base_weights":[1.3838209E0,-5.520594E-1,3.1435359E0,-5.7014804E0,1.0429032E1,-6.108453E-1,-1.6861029E-1,3.559021E-1,8.8658345E-1],"categories":[],"categories_nodes":[],"categories_segments":[],"categories_sizes":[],"default_left":[0,0,0,0,0,0,0,0,0],"id":36,"left_children":[1,3,-1,5,7,-1,-1,-1,-1],"loss_changes":[1.1699773E4,5.487902E3,0E0,9.604324E2,6.2333276E2,0E0,0E0,0E0,0E0],"parents":[2147483647,0,0,1,1,3,3,4,4],"right_children":[2,4,-1,6,8,-1,-1,-1,-1],"split_conditions":[1.2933E2,1.522E2,3.1435359E0,9.9E1,2.39E1,-6.108453E-1,-1.6861029E-1,3.559021E-1,8.8658345E-1],"split_indices":[11,43,0,43,15,0,0,0,0],"split_type":[0,0,0,0,0,0,0,0,0],"sum_hessian":[9.7E1,9.5E1,2E0,6.5E1,3E1,1.6E1,4.9E1,2.2E1,8E0],"tree_param":{"num_deleted":"0","num_feature":"60","num_nodes":"9","size_leaf_vector":"1"}},{"base_weights":[1.7151687E0,-9.759776E-1,5.3090942E1,-6.2446017E0,6.628169E0,3.0387518E0,7.5096667E-1,-5.336511E-1,-1.048904E-1,1.0966045E-1,5.4630274E-1],"categories":[],"categories_nodes":[],"categories_segments":[],"categories_sizes":[],"default_left":[0,0,0,0,0,0,0,0,0,0,0],"id":37,"left_children":[1,3,5,7,9,-1,-1,-1,-1,-1,-1],"loss_changes":[1.1112593E4,3.1262715E3,2.573838E2,8.223425E2,5.859872E2,0E0,0E0,0E0,0E0,0E0,0E0],"parents":[2147483647,0,0,1,1,2,2,3,3,4,4],"right_children":[2,4,6,8,10,-1,-1,-1,-1,-1,-1],"split_conditions":[1.2933E2,4.61E0,6.428783E1,1.096E2,1.52E1,3.0387518E0,7.5096667E-1,-5.336511E-1,-1.048904E-1,1.0966045E-1,5.4630274E-1],"split_indices":[11,15,0,43,15,0,0,0,0,0,0],"split_type":[0,0,0,0,0,0,0,0,0,0,0],"sum_hessian":[7.9E1,7.6E1,3E0,4.5E1,3.1E1,2E0,1E0,2.1E1,2.4E1,1.6E1,1.5E1],"tree_param":{"num_deleted":"0","num_feature":"60","num_nodes":"11","size_leaf_vector":"1"}},{"base_weights":[1.6911259E0,-1.5146041E0,4.8960934E1,-4.5892377E0,8.659886E0,2.933485E0,9.8477983E-1,-3.5194978E-1,3.0816069E-2,2.5467262E-1,6.424597E-1],"categories":[],"categories_nodes":[],"categories_segments":[],"categories_sizes":[],"default_left":[0,0,0,0,0,0,0,0,0,0,0],"id":38,"left_children":[1,3,5,7,9,-1,-1,-1,-1,-1,-1],"loss_changes":[1.4318375E4,2.8239143E3,5.4924805E2,8.8425085E2,2.4831213E2,0E0,0E0,0E0,0E0,0E0,0E0],"parents":[2147483647,0,0,1,1,2,2,3,3,4,4],"right_children":[2,4,6,8,10,-1,-1,-1,-1,-1,-1],"split_conditions":[2.2463E2,1.535E2,6.428783E1,4.61E0,1.768E2,2.933485E0,9.8477983E-1,-3.5194978E-1,3.0816069E-2,2.5467262E-1,6.424597E-1],"split_indices":[43,43,0,15,51,0,0,0,0,0,0],"split_type":[0,0,0,0,0,0,0,0,0,0,0],"sum_hessian":[9.3E1,8.8E1,5E0,6.8E1,2E1,3E0,2E0,4.6E1,2.2E1,1.2E1,8E0],"tree_param":{"num_deleted":"0","num_feature":"60","num_nodes":"11","size_leaf_vector":"1"}},{"base_weights":[-6.4571285E-1,-3.8022814E0,1.5572058E1,-8.839832E0,5.361457E-1,9.0587435E0,1.6423658E0,-7.6418716E-1,-3.5769913E-1,-8.422231E-2,2.1463381E-1,5.002462E-1,1.2849146E-1],"categories":[],"categories_nodes":[],"categories_segments":[],"categories_sizes":[],"default_left":[0,0,0,0,0,0,0,0,0,0,0,0,0],"id":39,"left_children":[1,3,5,7,9,11,-1,-1,-1,-1,-1,-1,-1],"loss_changes":[5.0248823E3,1.7968533E3,1.5027512E3,3.034724E2,3.8260822E2,5.4105103E1,0E0,0E0,0E0,0E0,0E0,0E0,0E0],"parents":[2147483647,0,0,1,1,2,2,3,3,4,4,5,5],"right_children":[2,4,6,8,10,12,-1,-1,-1,-1,-1,-1,-1],"split_conditions":[1.47E1,1.139E2,3.975E1,8.27E1,1.535E2,7.6125526E0,1.6423658E0,-7.6418716E-1,-3.5769913E-1,-8.422231E-2,2.1463381E-1,5.002462E-1,1.2849146E-1],"split_indices":[15,43,15,43,43,14,0,0,0,0,0,0,0],"split_type":[0,0,0,0,0,0,0,0,0,0,0,0,0],"sum_hessian":[9.6E1,8.1E1,1.5E1,3.7E1,4.4E1,1.2E1,3E0,6E0,3.1E1,2.8E1,1.6E1,1E1,2E0],"tree_param":{"num_deleted":"0","num_feature":"60","num_nodes":"13","size_leaf_vector":"1"}},{"base_weights":[5.851211E-1,-1.4549987E0,2.164068E0,-5.6045847E0,5.127834E0,-3.2493454E-1,3.3746788E-1,8.248444E-2,3.9673194E-1],"categories":[],"categories_nodes":[],"categories_segments":[],"categories_sizes":[],"default_left":[0,0,0,0,0,0,0,0,0],"id":40,"left_children":[1,3,-1,5,7,-1,-1,-1,-1],"loss_changes":[7.641147E3,2.3232861E3,0E0,6.1824E2,3.0907202E2,0E0,0E0,0E0,0E0],"parents":[2147483647,0,0,1,1,3,3,4,4],"right_children":[2,4,-1,6,8,-1,-1,-1,-1],"split_conditions":[2.2463E2,1.361E2,2.164068E0,1.25E1,1.654E2,-3.2493454E-1,3.3746788E-1,8.248444E-2,3.9673194E-1],"split_indices":[43,43,0,15,43,0,0,0,0],"split_type":[0,0,0,0,0,0,0,0,0],"sum_hessian":[8.6E1,8.3E1,3E0,5.1E1,3.2E1,4.8E1,3E0,1.5E1,1.7E1],"tree_param":{"num_deleted":"0","num_feature":"60","num_nodes":"9","size_leaf_vector":"1"}},{"base_weights":[2.5812152E-1,-2.4697466E0,2.7205025E1,-6.206592E0,3.757697E0,2.1244452E0,8.38418E-1,-6.039655E-1,-2.3336601E-1,9.1777585E-2,4.0936455E-1],"categories":[],"categories_nodes":[],"categories_segments":[],"categories_sizes":[],"default_left":[0,0,0,0,0,0,0,0,0,0,0],"id":41,"left_children":[1,3,5,7,9,-1,-1,-1,-1,-1,-1],"loss_changes":[7.197427E3,2.0944412E3,7.231455E2,4.4984595E2,2.744588E2,0E0,0E0,0E0,0E0,0E0,0E0],"parents":[2147483647,0,0,1,1,2,2,3,3,4,4],"right_children":[2,4,6,8,10,-1,-1,-1,-1,-1,-1],"split_conditions":[2.39E1,1.326E2,6.1982983E1,8.91E1,1.885E2,2.1244452E0,8.38418E-1,-6.039655E-1,-2.3336601E-1,9.1777585E-2,4.0936455E-1],"split_indices":[15,43,0,43,43,0,0,0,0,0,0],"split_type":[0,0,0,0,0,0,0,0,0,0,0],"sum_hessian":[9.6E1,8.8E1,8E0,5.5E1,3.3E1,2E0,6E0,1E1,4.5E1,2.4E1,9E0],"tree_param":{"num_deleted":"0","num_feature":"60","num_nodes":"11","size_leaf_vector":"1"}},{"base_weights":[-1.19676E0,-4.678281E0,8.260566E0,-8.349321E0,-1.4409395E0,4.404222E0,1.8649515E1,-7.459118E-1,-3.2044515E-1,-1.2149613E-1,1.7842707E-1,2.7537513E-1,3.6405183E-2,5.5296355E-1,1.2541708E0],"categories":[],"categories_nodes":[],"categories_segments":[],"categories_sizes":[],"default_left":[0,0,0,0,0,0,0,0,0,0,0,0,0,0,0],"id":42,"left_children":[1,3,5,7,9,11,13,-1,-1,-1,-1,-1,-1,-1,-1],"loss_changes":[3.298307E3,8.555311E2,9.9957385E2,3.3776953E2,2.0684296E2,8.116156E1,6.443994E1,0E0,0E0,0E0,0E0,0E0,0E0,0E0,0E0],"parents":[2147483647,0,0,1,1,2,2,3,3,4,4,5,5,6,6],"right_children":[2,4,6,8,10,12,14,-1,-1,-1,-1,-1,-1,-1,-1],"split_conditions":[1.535E2,1.096E2,2.1137549E2,8.21E1,9.3E0,1.832546E3,2.709753E0,-7.459118E-1,-3.2044515E-1,-1.2149613E-1,1.7842707E-1,2.7537513E-1,3.6405183E-2,5.5296355E-1,1.2541708E0],"split_indices":[43,43,43,43,15,34,4,0,0,0,0,0,0,0,0],"split_type":[0,0,0,0,0,0,0,0,0,0,0,0,0,0,0],"sum_hessian":[9.8E1,7.2E1,2.6E1,3.3E1,3.9E1,2E1,6E0,6E0,2.7E1,3.3E1,6E0,1.5E1,5E0,4E0,2E0],"tree_param":{"num_deleted":"0","num_feature":"60","num_nodes":"15","size_leaf_vector":"1"}},{"base_weights":[1.9277717E0,-1.3407315E-1,2.6759293E0,-2.837848E0,8.735748E0,-2.9513317E-1,-3.3725977E-3,5.2361447E-1,1.0631424E-1],"categories":[],"categories_nodes":[],"categories_segments":[],"categories_sizes":[],"default_left":[0,0,0,0,0,0,0,0,0],"id":43,"left_children":[1,3,-1,5,7,-1,-1,-1,-1],"loss_changes":[8.304211E3,1.8474227E3,0E0,5.005562E2,1.8432983E2,0E0,0E0,0E0,0E0],"parents":[2147483647,0,0,1,1,3,3,4,4],"right_children":[2,4,-1,6,8,-1,-1,-1,-1],"split_conditions":[3.51E1,1.714E2,2.6759293E0,1.164E2,2.75E2,-2.9513317E-1,-3.3725977E-3,5.2361447E-1,1.0631424E-1],"split_indices":[12,43,0,43,21,0,0,0,0],"split_type":[0,0,0,0,0,0,0,0,0],"sum_hessian":[7.7E1,7.5E1,2E0,5.8E1,1.7E1,2.7E1,3.1E1,1.3E1,4E0],"tree_param":{"num_deleted":"0","num_feature":"60","num_nodes":"9","size_leaf_vector":"1"}},{"base_weights":[1.2757853E0,-4.9924168E-1,2.5867317E0,-3.0382526E0,7.0250745E0,-3.3677217E-1,-5.603031E-2,2.0846558E-1,5.01753E-1],"categories":[],"categories_nodes":[],"categories_segments":[],"categories_sizes":[],"default_left":[0,0,0,0,0,0,0,0,0],"id":44,"left_children":[1,3,-1,5,7,-1,-1,-1,-1],"loss_changes":[7.907619E3,1.6643157E3,0E0,4.5329608E2,1.4726843E2,0E0,0E0,0E0,0E0],"parents":[2147483647,0,0,1,1,3,3,4,4],"right_children":[2,4,-1,6,8,-1,-1,-1,-1],"split_conditions":[1.2933E2,1.617713E2,2.5867317E0,1.008E2,5.3E1,-3.3677217E-1,-5.603031E-2,2.0846558E-1,5.01753E-1],"split_indices":[11,43,0,43,9,0,0,0,0],"split_type":[0,0,0,0,0,0,0,0,0],"sum_hessian":[8.7E1,8.5E1,2E0,6.4E1,2.1E1,2.1E1,4.3E1,1.2E1,9E0],"tree_param":{"num_deleted":"0","num_feature":"60","num_nodes":"9","size_leaf_vector":"1"}},{"base_weights":[1.0525964E0,-6.2837213E-1,2.500507E0,-2.7452712E0,9.856889E0,-2.4379475E-1,6.878612E-2,2.9358235E-1,5.631172E-1],"categories":[],"categories_nodes":[],"categories_segments":[],"categories_sizes":[],"default_left":[0,0,0,0,0,0,0,0,0],"id":45,"left_children":[1,3,-1,5,7,-1,-1,-1,-1],"loss_changes":[7.4380737E3,1.9803287E3,0E0,6.564491E2,1.7887817E1,0E0,0E0,0E0,0E0],"parents":[2147483647,0,0,1,1,3,3,4,4],"right_children":[2,4,-1,6,8,-1,-1,-1,-1],"split_conditions":[1.2933E2,1.6E1,2.500507E0,1.326E2,1.329E2,-2.4379475E-1,6.878612E-2,2.9358235E-1,5.631172E-1],"split_indices":[11,15,0,43,49,0,0,0,0],"split_type":[0,0,0,0,0,0,0,0,0],"sum_hessian":[8.9E1,8.7E1,2E0,7.3E1,1.4E1,4.8E1,2.5E1,5E0,9E0],"tree_param":{"num_deleted":"0","num_feature":"60","num_nodes":"9","size_leaf_vector":"1"}},{"base_weights":[1.8208502E-1,-1.8147042E0,1.6936905E1,-4.872473E0,2.201177E0,3.5110912E-1,1.2723597E0,-5.7436484E-1,-1.9180804E-1,3.4191642E-2,2.8627297E-1],"categories":[],"categories_nodes":[],"categories_segments":[],"categories_sizes":[],"default_left":[0,0,0,0,0,0,0,0,0,0,0],"id":46,"left_children":[1,3,5,7,9,-1,-1,-1,-1,-1,-1],"loss_changes":[3.142129E3,1.0422146E3,6.6507666E2,2.8497388E2,1.9394409E2,0E0,0E0,0E0,0E0,0E0,0E0],"parents":[2147483647,0,0,1,1,2,2,3,3,4,4],"right_children":[2,4,6,8,10,-1,-1,-1,-1,-1,-1],"split_conditions":[2.6670317E1,1.326E2,3.7E0,8.27E1,1.95664E2,3.5110912E-1,1.2723597E0,-5.7436484E-1,-1.9180804E-1,3.4191642E-2,2.8627297E-1],"split_indices":[15,43,14,43,53,0,0,0,0,0,0],"split_type":[0,0,0,0,0,0,0,0,0,0,0],"sum_hessian":[9.2E1,8.3E1,9E0,4.7E1,3.6E1,5E0,4E0,5E0,4.2E1,2.6E1,1E1],"tree_param":{"num_deleted":"0","num_feature":"60","num_nodes":"11","size_leaf_vector":"1"}},{"base_weights":[1.6229436E0,-6.662864E-1,4.113096E1,-3.9987097E0,4.6459827E0,2.295864E0,5.4964143E-1,-2.616171E-1,-5.0154277E-3,1.23841524E-1,4.8021325E-1],"categories":[],"categories_nodes":[],"categories_segments":[],"categories_sizes":[],"default_left":[0,0,0,0,0,0,0,0,0,0,0],"id":47,"left_children":[1,3,5,7,9,-1,-1,-1,-1,-1,-1],"loss_changes":[8.257712E3,1.5587153E3,2.1649316E2,2.5917157E2,3.41891E2,0E0,0E0,0E0,0E0,0E0,0E0],"parents":[2147483647,0,0,1,1,2,2,3,3,4,4],"right_children":[2,4,6,8,10,-1,-1,-1,-1,-1,-1],"split_conditions":[1.13516716E2,1.361E2,6.428783E1,4.61E0,1.52E1,2.295864E0,5.4964143E-1,-2.616171E-1,-5.0154277E-3,1.23841524E-1,4.8021325E-1],"split_indices":[44,43,0,15,15,0,0,0,0,0,0],"split_type":[0,0,0,0,0,0,0,0,0,0,0],"sum_hessian":[9E1,8.6E1,4E0,5.3E1,3.3E1,3E0,1E0,4E1,1.3E1,2.4E1,9E0],"tree_param":{"num_deleted":"0","num_feature":"60","num_nodes":"11","size_leaf_vector":"1"}},{"base_weights":[4.0476945E-1,-9.879799E-1,1.9169165E0,-3.2673044E0,6.741744E0,-6.576533E-1,-1.1032975E-1,1.6308273E-1,4.7738296E-1],"categories":[],"categories_nodes":[],"categories_segments":[],"categories_sizes":[],"default_left":[0,0,0,0,0,0,0,0,0],"id":48,"left_children":[1,3,-1,5,7,-1,-1,-1,-1],"loss_changes":[4.4757607E3,1.4667485E3,0E0,6.420755E2,1.5439081E2,0E0,0E0,0E0,0E0],"parents":[2147483647,0,0,1,1,3,3,4,4],"right_children":[2,4,-1,6,8,-1,-1,-1,-1],"split_conditions":[1.596E2,1.535E2,1.9169165E0,8.21E1,1.47E1,-6.576533E-1,-1.1032975E-1,1.6308273E-1,4.7738296E-1],"split_indices":[11,43,0,43,15,0,0,0,0],"split_type":[0,0,0,0,0,0,0,0,0],"sum_hessian":[8.3E1,8.1E1,2E0,6.3E1,1.8E1,5E0,5.8E1,9E0,9E0],"tree_param":{"num_deleted":"0","num_feature":"60","num_nodes":"9","size_leaf_vector":"1"}},{"base_weights":[-3.2454997E-2,-2.6925118E0,8.7473545E0,-5.440707E0,-2.5121817E-1,6.5557156E0,9.490703E-1,-4.558197E-1,-2.0969431E-1,-4.867317E-2,1.4400035E-1,4.5380694E-1,1.5134168E-1],"categories":[],"categories_nodes":[],"categories_segments":[],"categories_sizes":[],"default_left":[0,0,0,0,0,0,0,0,0,0,0,0,0],"id":49,"left_children":[1,3,5,7,9,11,-1,-1,-1,-1,-1,-1,-1],"loss_changes":[2.0087097E3,4.4143716E2,3.2415027E2,1.0383746E2,8.421804E1,1.32625E2,0E0,0E0,0E0,0E0,0E0,0E0,0E0],"parents":[2147483647,0,0,1,1,2,2,3,3,4,4,5,5],"right_children":[2,4,6,8,10,12,-1,-1,-1,-1,-1,-1,-1],"split_conditions":[1.764E2,1.118E2,2.717E2,8.6721115E1,8.2E0,4.3636365E2,9.490703E-1,-4.558197E-1,-2.0969431E-1,-4.867317E-2,1.4400035E-1,4.5380694E-1,1.5134168E-1],"split_indices":[43,43,43,43,15,25,0,0,0,0,0,0,0],"split_type":[0,0,0,0,0,0,0,0,0,0,0,0,0],"sum_hessian":[8.4E1,6.5E1,1.9E1,3E1,3.5E1,1.7E1,2E0,6E0,2.4E1,2.9E1,6E0,9E0,8E0],"tree_param":{"num_deleted":"0","num_feature":"60","num_nodes":"13","size_leaf_vector":"1"}},{"base_weights":[6.288712E-2,-1.9985869E0,1.0245295E1,-5.1054974E0,3.2482848E-1,6.793362E0,8.5856307E-1,-2.9770112E-1,-6.957026E-2,-1.12287905E-2,2.6022506E-1,3.6143234E-1,3.9248656E-2],"categories":[],"categories_nodes":[],"categories_segments":[],"categories_sizes":[],"default_left":[0,0,0,0,0,0,0,0,0,0,0,0,0],"id":50,"left_children":[1,3,5,7,9,11,-1,-1,-1,-1,-1,-1,-1],"loss_changes":[2.119553E3,6.0802454E2,2.897849E2,1.05169556E2,1.3253355E2,2.832544E1,0E0,0E0,0E0,0E0,0E0,0E0,0E0],"parents":[2147483647,0,0,1,1,2,2,3,3,4,4,5,5],"right_children":[2,4,6,8,10,12,-1,-1,-1,-1,-1,-1,-1],"split_conditions":[1.81E1,1.118E2,2.2231E2,4.8E0,2.0319449E2,1.13E1,8.5856307E-1,-2.9770112E-1,-6.957026E-2,-1.12287905E-2,2.6022506E-1,3.6143234E-1,3.9248656E-2],"split_indices":[15,43,52,15,43,14,0,0,0,0,0,0,0],"split_type":[0,0,0,0,0,0,0,0,0,0,0,0,0],"sum_hessian":[9.9E1,8.3E1,1.6E1,3.5E1,4.8E1,1.2E1,4E0,2.8E1,7E0,4.4E1,4E0,1.1E1,1E0],"tree_param":{"num_deleted":"0","num_feature":"60","num_nodes":"13","size_leaf_vector":"1"}},{"base_weights":[1.8055768E0,1.9629425E-1,2.2327173E0,-3.004505E0,6.7091703E0,-2.764708E-1,-9.064244E-3,7.74359E-2,4.4002405E-1],"categories":[],"categories_nodes":[],"categories_segments":[],"categories_sizes":[],"default_left":[0,0,0,0,0,0,0,0,0],"id":51,"left_children":[1,3,-1,5,7,-1,-1,-1,-1],"loss_changes":[5.714565E3,1.7087167E3,0E0,3.910585E2,2.7775745E2,0E0,0E0,0E0,0E0],"parents":[2147483647,0,0,1,1,3,3,4,4],"right_children":[2,4,-1,6,8,-1,-1,-1,-1],"split_conditions":[3.51E1,1.522E2,2.2327173E0,1.095E2,3.3E0,-2.764708E-1,-9.064244E-3,7.74359E-2,4.4002405E-1],"split_indices":[12,43,0,52,15,0,0,0,0],"split_type":[0,0,0,0,0,0,0,0,0],"sum_hessian":[8.2E1,8E1,2E0,5.4E1,2.6E1,2.8E1,2.6E1,8E0,1.8E1],"tree_param":{"num_deleted":"0","num_feature":"60","num_nodes":"9","size_leaf_vector":"1"}},{"base_weights":[3.3369446E-1,-9.717749E-1,3.0602432E1,-3.2901616E0,2.626058E0,1.7283127E0,4.677742E-1,-2.7480623E-1,-8.181208E-2,4.9901016E-2,4.7303948E-1],"categories":[],"categories_nodes":[],"categories_segments":[],"categories_sizes":[],"default_left":[0,0,0,0,0,0,0,0,0,0,0],"id":52,"left_children":[1,3,5,7,9,-1,-1,-1,-1,-1,-1],"loss_changes":[3.82317E3,7.843689E2,1.34921875E1,1.989707E2,4.0226443E2,0E0,0E0,0E0,0E0,0E0,0E0],"parents":[2147483647,0,0,1,1,2,2,3,3,4,4],"right_children":[2,4,6,8,10,-1,-1,-1,-1,-1,-1],"split_conditions":[2.7879807E2,5.1E0,6.428783E1,1.072E2,1.942E2,1.7283127E0,4.677742E-1,-2.7480623E-1,-8.181208E-2,4.9901016E-2,4.7303948E-1],"split_indices":[43,15,0,43,43,0,0,0,0,0,0],"split_type":[0,0,0,0,0,0,0,0,0,0,0],"sum_hessian":[9.5E1,9.2E1,3E0,5.6E1,3.6E1,2E0,1E0,2.3E1,3.3E1,3E1,6E0],"tree_param":{"num_deleted":"0","num_feature":"60","num_nodes":"11","size_leaf_vector":"1"}},{"base_weights":[1.6552564E0,-1.8266425E-1,1.9689149E0,-2.0602522E0,5.8347507E0,-2.4797705E-1,-1.5642893E-2,1.7506777E-1,4.4485876E-1],"categories":[],"categories_nodes":[],"categories_segments":[],"categories_sizes":[],"default_left":[0,0,0,0,0,0,0,0,0],"id":53,"left_children":[1,3,-1,5,7,-1,-1,-1,-1],"loss_changes":[5.969741E3,9.4977386E2,0E0,3.2268524E2,1.1176477E2,0E0,0E0,0E0,0E0],"parents":[2147483647,0,0,1,1,3,3,4,4],"right_children":[2,4,-1,6,8,-1,-1,-1,-1],"split_conditions":[1.2933E2,1.16E1,1.9689149E0,1.084E2,2.015E2,-2.4797705E-1,-1.5642893E-2,1.7506777E-1,4.4485876E-1],"split_indices":[11,15,0,43,43,0,0,0,0],"split_type":[0,0,0,0,0,0,0,0,0],"sum_hessian":[8.5E1,8.2E1,3E0,6.3E1,1.9E1,2.3E1,4E1,1.2E1,7E0],"tree_param":{"num_deleted":"0","num_feature":"60","num_nodes":"9","size_leaf_vector":"1"}},{"base_weights":[1.9646537E-1,-2.3485966E0,1.2273231E1,-6.7506437E0,-7.628151E-1,7.3094754E0,1.2668564E0,-5.163736E-1,-2.2400205E-1,-6.86999E-2,1.5762149E-1,2.1260262E-1,4.344429E-1],"categories":[],"categories_nodes":[],"categories_segments":[],"categories_sizes":[],"default_left":[0,0,0,0,0,0,0,0,0,0,0,0,0],"id":54,"left_children":[1,3,5,7,9,11,-1,-1,-1,-1,-1,-1,-1],"loss_changes":[2.8258113E3,5.2538257E2,8.523347E2,1.16163635E2,1.4072845E2,1.7880127E1,0E0,0E0,0E0,0E0,0E0,0E0,0E0],"parents":[2147483647,0,0,1,1,2,2,3,3,4,4,5,5],"right_children":[2,4,6,8,10,12,-1,-1,-1,-1,-1,-1,-1],"split_conditions":[1.52E1,9.9E1,9.899E1,8.27E1,1.815E2,1.348E2,1.2668564E0,-5.163736E-1,-2.2400205E-1,-6.86999E-2,1.5762149E-1,2.1260262E-1,4.344429E-1],"split_indices":[15,43,44,43,43,49,0,0,0,0,0,0,0],"split_type":[0,0,0,0,0,0,0,0,0,0,0,0,0],"sum_hessian":[9E1,7.5E1,1.5E1,1.9E1,5.6E1,1.2E1,3E0,6E0,1.3E1,4.9E1,7E0,5E0,7E0],"tree_param":{"num_deleted":"0","num_feature":"60","num_nodes":"13","size_leaf_vector":"1"}},{"base_weights":[1.4250841E0,-2.185512E-1,1.8614396E0,-1.9015856E0,5.2416816E0,-2.1037856E-1,-3.9496007E-3,3.636386E-1,8.6273745E-2],"categories":[],"categories_nodes":[],"categories_segments":[],"categories_sizes":[],"default_left":[0,0,0,0,0,0,0,0,0],"id":55,"left_children":[1,3,-1,5,7,-1,-1,-1,-1],"loss_changes":[5.3633257E3,8.186663E2,0E0,2.8546307E2,1.3742749E2,0E0,0E0,0E0,0E0],"parents":[2147483647,0,0,1,1,3,3,4,4],"right_children":[2,4,-1,6,8,-1,-1,-1,-1],"split_conditions":[1.2933E2,1.16E1,1.8614396E0,1.118E2,3.35E2,-2.1037856E-1,-3.9496007E-3,3.636386E-1,8.6273745E-2],"split_indices":[11,15,0,43,20,0,0,0,0],"split_type":[0,0,0,0,0,0,0,0,0],"sum_hessian":[9E1,8.7E1,3E0,6.7E1,2E1,2.9E1,3.8E1,1.2E1,8E0],"tree_param":{"num_deleted":"0","num_feature":"60","num_nodes":"9","size_leaf_vector":"1"}},{"base_weights":[-4.7347128E-1,-2.0230532E0,7.750995E0,-7.554512E0,-1.1409355E0,4.8066025E0,6.044791E-1,-4.7705993E-1,-2.3199272E-1,-1.1290514E-1,4.9864363E-2,2.8836766E-1,3.2120004E-2],"categories":[],"categories_nodes":[],"categories_segments":[],"categories_sizes":[],"default_left":[0,0,0,0,0,0,0,0,0,0,0,0,0],"id":56,"left_children":[1,3,5,7,9,11,-1,-1,-1,-1,-1,-1,-1],"loss_changes":[1.1244509E3,3.524562E2,1.2073328E2,1.3635315E1,1.5752087E2,3.6302643E1,0E0,0E0,0E0,0E0,0E0,0E0,0E0],"parents":[2147483647,0,0,1,1,2,2,3,3,4,4,5,5],"right_children":[2,4,6,8,10,12,-1,-1,-1,-1,-1,-1,-1],"split_conditions":[1.8439E2,8.91E1,2.5103462E1,8.13E1,1.308E2,1.1226851E0,6.044791E-1,-4.7705993E-1,-2.3199272E-1,-1.1290514E-1,4.9864363E-2,2.8836766E-1,3.2120004E-2],"split_indices":[43,43,15,43,43,17,0,0,0,0,0,0,0],"split_type":[0,0,0,0,0,0,0,0,0,0,0,0,0],"sum_hessian":[8.6E1,7.3E1,1.3E1,9E0,6.4E1,9E0,4E0,4E0,5E0,4.2E1,2.2E1,7E0,2E0],"tree_param":{"num_deleted":"0","num_feature":"60","num_nodes":"13","size_leaf_vector":"1"}},{"base_weights":[6.237333E-1,-2.9660577E-1,1.5086726E0,-2.466506E0,3.2888138E0,-2.4953234E-1,-4.037019E-2,8.176629E-2,3.7948495E-1],"categories":[],"categories_nodes":[],"categories_segments":[],"categories_sizes":[],"default_left":[0,0,0,0,0,0,0,0,0],"id":57,"left_children":[1,3,-1,5,7,-1,-1,-1,-1],"loss_changes":[2.7013298E3,7.627722E2,0E0,2.5142682E2,2.5071243E2,0E0,0E0,0E0,0E0],"parents":[2147483647,0,0,1,1,3,3,4,4],"right_children":[2,4,-1,6,8,-1,-1,-1,-1],"split_conditions":[1.596E2,5.14E0,1.5086726E0,1.07042946E2,1.942E2,-2.4953234E-1,-4.037019E-2,8.176629E-2,3.7948495E-1],"split_indices":[11,15,0,43,43,0,0,0,0],"split_type":[0,0,0,0,0,0,0,0,0],"sum_hessian":[9.8E1,9.6E1,2E0,6E1,3.6E1,2.3E1,3.7E1,2.7E1,9E0],"tree_param":{"num_deleted":"0","num_feature":"60","num_nodes":"9","size_leaf_vector":"1"}},{"base_weights":[8.633606E-1,-5.096461E-1,1.9281046E0,-3.1452E0,3.0185826E0,-3.7979838E-1,-1.1642599E-1,9.383471E-2,3.7405822E-1],"categories":[],"categories_nodes":[],"categories_segments":[],"categories_sizes":[],"default_left":[0,0,0,0,0,0,0,0,0],"id":58,"left_children":[1,3,-1,5,7,-1,-1,-1,-1],"loss_changes":[4.4193057E3,7.812976E2,0E0,1.5678568E2,1.6940793E2,0E0,0E0,0E0,0E0],"parents":[2147483647,0,0,1,1,3,3,4,4],"right_children":[2,4,-1,6,8,-1,-1,-1,-1],"split_conditions":[1.2093E2,1.361E2,1.9281046E0,8.39E1,2.39E1,-3.7979838E-1,-1.1642599E-1,9.383471E-2,3.7405822E-1],"split_indices":[11,43,0,43,15,0,0,0,0],"split_type":[0,0,0,0,0,0,0,0,0],"sum_hessian":[8.4E1,8.2E1,2E0,4.7E1,3.5E1,6E0,4.1E1,2.9E1,6E0],"tree_param":{"num_deleted":"0","num_feature":"60","num_nodes":"9","size_leaf_vector":"1"}},{"base_weights":[-3.8915822E-1,-2.254683E0,3.6222932E0,-4.912133E-1,-1.387916E0,2.2228372E0,7.503113E0,-1.3181785E-1,3.0228978E-2,1.4387064E-1,-1.1329651E-4,1.3954277E-1,5.1697963E-1],"categories":[],"categories_nodes":[],"categories_segments":[],"categories_sizes":[],"default_left":[0,0,0,0,0,0,0,0,0,0,0,0,0],"id":59,"left_children":[1,3,5,-1,7,9,11,-1,-1,-1,-1,-1,-1],"loss_changes":[6.592283E2,3.800286E2,1.3539084E2,0E0,1.384071E2,3.2049477E1,6.4707245E1,0E0,0E0,0E0,0E0,0E0,0E0],"parents":[2147483647,0,0,1,1,2,2,4,4,5,5,6,6],"right_children":[2,4,6,-1,8,10,12,-1,-1,-1,-1,-1,-1],"split_conditions":[1.535E2,8.21E1,2.39E1,-4.912133E-1,3.6E0,9.336921E1,6.804099E1,-1.3181785E-1,3.0228978E-2,1.4387064E-1,-1.1329651E-4,1.3954277E-1,5.1697963E-1],"split_indices":[43,43,15,0,15,0,9,0,0,0,0,0,0],"split_type":[0,0,0,0,0,0,0,0,0,0,0,0,0],"sum_hessian":[8.6E1,5.9E1,2.7E1,5E0,5.4E1,2.1E1,6E0,3.3E1,2.1E1,1.6E1,5E0,3E0,3E0],"tree_param":{"num_deleted":"0","num_feature":"60","num_nodes":"13","size_leaf_vector":"1"}},{"base_weights":[2.7601864E-2,-6.536867E-1,1.0569173E0,-1.8325033E0,4.0339417E0,-1.8479572E-1,-8.8321976E-4,9.196888E-2,2.731386E-1],"categories":[],"categories_nodes":[],"categories_segments":[],"categories_sizes":[],"default_left":[0,0,0,0,0,0,0,0,0],"id":60,"left_children":[1,3,-1,5,7,-1,-1,-1,-1],"loss_changes":[1.3801562E3,5.2129663E2,0E0,2.5356908E2,4.952945E1,0E0,0E0,0E0,0E0],"parents":[2147483647,0,0,1,1,3,3,4,4],"right_children":[2,4,-1,6,8,-1,-1,-1,-1],"split_conditions":[1.13516716E2,1.25E1,1.0569173E0,1.188E2,3.0185184E2,-1.8479572E-1,-8.8321976E-4,9.196888E-2,2.731386E-1],"split_indices":[44,15,0,43,19,0,0,0,0],"split_type":[0,0,0,0,0,0,0,0,0],"sum_hessian":[9.4E1,9.2E1,2E0,7.4E1,1.8E1,3.6E1,3.8E1,8E0,1E1],"tree_param":{"num_deleted":"0","num_feature":"60","num_nodes":"9","size_leaf_vector":"1"}},{"base_weights":[4.4214222E-1,-7.9136395E-1,1.8238806E0,-4.3865795E0,8.7187207E-1,-3.7868538E-1,-1.4817755E-1,-9.819213E-3,2.2360943E-1],"categories":[],"categories_nodes":[],"categories_segments":[],"categories_sizes":[],"default_left":[0,0,0,0,0,0,0,0,0],"id":61,"left_children":[1,3,-1,5,7,-1,-1,-1,-1],"loss_changes":[4.029365E3,5.300375E2,0E0,1.0454541E2,2.35488E2,0E0,0E0,0E0,0E0],"parents":[2147483647,0,0,1,1,3,3,4,4],"right_children":[2,4,-1,6,8,-1,-1,-1,-1],"split_conditions":[3.51E1,1.008E2,1.8238806E0,8.29E1,1.43E1,-3.7868538E-1,-1.4817755E-1,-9.819213E-3,2.2360943E-1],"split_indices":[12,43,0,43,15,0,0,0,0],"split_type":[0,0,0,0,0,0,0,0,0],"sum_hessian":[8.9E1,8.7E1,2E0,2.7E1,6E1,7E0,2E1,4.7E1,1.3E1],"tree_param":{"num_deleted":"0","num_feature":"60","num_nodes":"9","size_leaf_vector":"1"}},{"base_weights":[7.190446E-1,-1.1210942E0,8.362034E0,-3.7194982E0,5.579151E-1,5.9945736E0,1.1560348E0,-3.0724356E-1,-1.3893603E-1,-4.779943E-3,1.5549903E-1,1.229882E-1,3.4839317E-1],"categories":[],"categories_nodes":[],"categories_segments":[],"categories_sizes":[],"default_left":[0,0,0,0,0,0,0,0,0,0,0,0,0],"id":62,"left_children":[1,3,5,7,9,11,-1,-1,-1,-1,-1,-1,-1],"loss_changes":[1.2329565E3,3.1183002E2,4.5539062E2,4.681378E1,7.368096E1,3.7906982E1,0E0,0E0,0E0,0E0,0E0,0E0,0E0],"parents":[2147483647,0,0,1,1,2,2,3,3,4,4,5,5],"right_children":[2,4,6,8,10,12,-1,-1,-1,-1,-1,-1,-1],"split_conditions":[1.81E1,1.118E2,1.505E2,8.39E1,7.02E1,1.04017E3,1.1560348E0,-3.0724356E-1,-1.3893603E-1,-4.779943E-3,1.5549903E-1,1.229882E-1,3.4839317E-1],"split_indices":[15,43,8,43,9,34,0,0,0,0,0,0,0],"split_type":[0,0,0,0,0,0,0,0,0,0,0,0,0],"sum_hessian":[8.6E1,7E1,1.6E1,2.7E1,4.3E1,1.5E1,1E0,6E0,2.1E1,3.5E1,8E0,4E0,1.1E1],"tree_param":{"num_deleted":"0","num_feature":"60","num_nodes":"13","size_leaf_vector":"1"}},{"base_weights":[5.694207E-2,-4.6062592E-1,1.127134E0,-1.4093088E0,5.047977E0,-1.18818276E-1,4.402003E-2,1.1329891E-1,3.5544184E-1],"categories":[],"categories_nodes":[],"categories_segments":[],"categories_sizes":[],"default_left":[0,0,0,0,0,0,0,0,0],"id":63,"left_children":[1,3,-1,5,7,-1,-1,-1,-1],"loss_changes":[1.0345188E3,4.6176895E2,0E0,1.6816307E2,5.842456E1,0E0,0E0,0E0,0E0],"parents":[2147483647,0,0,1,1,3,3,4,4],"right_children":[2,4,-1,6,8,-1,-1,-1,-1],"split_conditions":[3.51E1,1.942E2,1.127134E0,4.61E0,1.8430348E2,-1.18818276E-1,4.402003E-2,1.1329891E-1,3.5544184E-1],"split_indices":[12,43,0,15,48,0,0,0,0],"split_type":[0,0,0,0,0,0,0,0,0],"sum_hessian":[8.7E1,8.6E1,1E0,7.4E1,1.2E1,5.2E1,2.2E1,6E0,6E0],"tree_param":{"num_deleted":"0","num_feature":"60","num_nodes":"9","size_leaf_vector":"1"}},{"base_weights":[3.8233018E-1,-3.9313728E-1,2.4552866E1,-2.101723E0,2.683829E0,3.849388E-1,1.4565262E0,-3.5512194E-1,-7.135275E-2,2.5837874E-1,3.4341414E-2],"categories":[],"categories_nodes":[],"categories_segments":[],"categories_sizes":[],"default_left":[0,0,0,0,0,0,0,0,0,0,0],"id":64,"left_children":[1,3,5,7,9,-1,-1,-1,-1,-1,-1],"loss_changes":[1.8090251E3,4.998232E2,7.187378E0,1.956676E2,1.6509224E2,0E0,0E0,0E0,0E0,0E0,0E0],"parents":[2147483647,0,0,1,1,2,2,3,3,4,4],"right_children":[2,4,6,8,10,-1,-1,-1,-1,-1,-1],"split_conditions":[1.596E2,5.14E0,6.1982983E1,8.29E1,2.9318182E2,3.849388E-1,1.4565262E0,-3.5512194E-1,-7.135275E-2,2.5837874E-1,3.4341414E-2],"split_indices":[11,15,0,43,20,0,0,0,0,0,0],"split_type":[0,0,0,0,0,0,0,0,0,0,0],"sum_hessian":[9.5E1,9.3E1,2E0,6E1,3.3E1,1E0,1E0,6E0,5.4E1,1.4E1,1.9E1],"tree_param":{"num_deleted":"0","num_feature":"60","num_nodes":"11","size_leaf_vector":"1"}},{"base_weights":[9.9185425E-1,-2.895715E-1,2.8935257E1,-1.7977395E0,3.8071156E0,3.753151E-1,1.6788071E0,-4.543689E-1,-5.853785E-2,3.2859093E-1,8.550863E-2],"categories":[],"categories_nodes":[],"categories_segments":[],"categories_sizes":[],"default_left":[0,0,0,0,0,0,0,0,0,0,0],"id":65,"left_children":[1,3,5,7,9,-1,-1,-1,-1,-1,-1],"loss_changes":[3.2668518E3,5.505515E2,1.457649E2,2.8644183E2,1.2789926E2,0E0,0E0,0E0,0E0,0E0,0E0],"parents":[2147483647,0,0,1,1,2,2,3,3,4,4],"right_children":[2,4,6,8,10,-1,-1,-1,-1,-1,-1],"split_conditions":[3.51E1,1.617713E2,2.122479E1,7.91E1,6.897E4,3.753151E-1,1.6788071E0,-4.543689E-1,-5.853785E-2,3.2859093E-1,8.550863E-2],"split_indices":[12,43,1,43,31,0,0,0,0,0,0],"split_type":[0,0,0,0,0,0,0,0,0,0,0],"sum_hessian":[9E1,8.7E1,3E0,6.4E1,2.3E1,1E0,2E0,4E0,6E1,9E0,1.4E1],"tree_param":{"num_deleted":"0","num_feature":"60","num_nodes":"11","size_leaf_vector":"1"}},{"base_weights":[-1.9389428E-1,-1.9549918E0,2.7096498E0,-3.6092207E0,-5.756036E-1,7.8088176E-1,4.252113E0,-3.3203298E-1,-1.4112361E-1,-5.5196334E-2,8.1681125E-2,8.4005736E-2,-2.4341475E-2,1.9011537E-2,2.7071065E-1],"categories":[],"categories_nodes":[],"categories_segments":[],"categories_sizes":[],"default_left":[0,0,0,0,0,0,0,0,0,0,0,0,0,0,0],"id":66,"left_children":[1,3,5,7,9,11,13,-1,-1,-1,-1,-1,-1,-1,-1],"loss_changes":[4.194847E2,1.1429555E2,8.890625E1,3.611148E1,3.5651768E1,1.7917446E1,7.4433075E1,0E0,0E0,0E0,0E0,0E0,0E0,0E0,0E0],"parents":[2147483647,0,0,1,1,2,2,3,3,4,4,5,5,6,6],"right_children":[2,4,6,8,10,12,14,-1,-1,-1,-1,-1,-1,-1,-1],"split_conditions":[4.7E0,1.072E2,2.209E1,8.27E1,2.9666666E2,4.7991E1,3.9854166E2,-3.3203298E-1,-1.4112361E-1,-5.5196334E-2,8.1681125E-2,8.4005736E-2,-2.4341475E-2,1.9011537E-2,2.7071065E-1],"split_indices":[15,43,12,43,27,16,25,0,0,0,0,0,0,0,0],"split_type":[0,0,0,0,0,0,0,0,0,0,0,0,0,0,0],"sum_hessian":[8E1,5E1,3E1,2.2E1,2.8E1,1.4E1,1.6E1,3E0,1.9E1,2.3E1,5E0,8E0,6E0,4E0,1.2E1],"tree_param":{"num_deleted":"0","num_feature":"60","num_nodes":"15","size_leaf_vector":"1"}},{"base_weights":[6.6265607E-1,-4.9102792E-1,1.6180182E0,-2.210405E0,2.181071E0,-4.3241835E-1,-8.139291E-2,6.1040234E-2,2.5146514E-1],"categories":[],"categories_nodes":[],"categories_segments":[],"categories_sizes":[],"default_left":[0,0,0,0,0,0,0,0,0],"id":67,"left_children":[1,3,-1,5,7,-1,-1,-1,-1],"loss_changes":[3.1242664E3,3.8615176E2,0E0,1.7719287E2,8.411722E1,0E0,0E0,0E0,0E0],"parents":[2147483647,0,0,1,1,3,3,4,4],"right_children":[2,4,-1,6,8,-1,-1,-1,-1],"split_conditions":[1.2933E2,1.372E2,1.6180182E0,4.06E1,2.1297E2,-4.3241835E-1,-8.139291E-2,6.1040234E-2,2.5146514E-1],"split_indices":[11,43,0,11,53,0,0,0,0],"split_type":[0,0,0,0,0,0,0,0,0],"sum_hessian":[8.4E1,8.2E1,2E0,5E1,3.2E1,3E0,4.7E1,2.5E1,7E0],"tree_param":{"num_deleted":"0","num_feature":"60","num_nodes":"9","size_leaf_vector":"1"}},{"base_weights":[2.3966096E-1,-7.9443824E-1,5.3191743E0,-2.506702E0,6.0380977E-2,6.715888E0,7.309555E-2,-1.4746013E-1,-6.541815E-2,-1.0691262E-2,1.530777E-1,1.23520665E-1,3.7342277E-1],"categories":[],"categories_nodes":[],"categories_segments":[],"categories_sizes":[],"default_left":[0,0,0,0,0,0,0,0,0,0,0,0,0],"id":68,"left_children":[1,3,5,7,9,11,-1,-1,-1,-1,-1,-1,-1],"loss_changes":[4.3494888E2,1.01145004E2,6.560687E1,8.337479E0,3.933283E1,1.3499878E1,0E0,0E0,0E0,0E0,0E0,0E0,0E0],"parents":[2147483647,0,0,1,1,2,2,3,3,4,4,5,5],"right_children":[2,4,6,8,10,12,-1,-1,-1,-1,-1,-1,-1],"split_conditions":[1.81E1,1.079E2,8.9797615E1,1.10204E1,3.4777777E2,2.39E1,7.309555E-2,-1.4746013E-1,-6.541815E-2,-1.0691262E-2,1.530777E-1,1.23520665E-1,3.7342277E-1],"split_indices":[15,43,0,4,28,15,0,0,0,0,0,0,0],"split_type":[0,0,0,0,0,0,0,0,0,0,0,0,0],"sum_hessian":[8.1E1,6.8E1,1.3E1,2.2E1,4.6E1,9E0,4E0,1.5E1,7E0,4.3E1,3E0,2E0,7E0],"tree_param":{"num_deleted":"0","num_feature":"60","num_nodes":"13","size_leaf_vector":"1"}},{"base_weights":[2.5915512E-1,-4.359124E-1,8.0035764E-1,-6.6085567E0,1.5714791E-1,-1.5682068E-1,-4.03228E-1,-3.5523113E-2,1.5813404E-1],"categories":[],"categories_nodes":[],"categories_segments":[],"categories_sizes":[],"default_left":[0,0,0,0,0,0,0,0,0],"id":69,"left_children":[1,3,-1,5,7,-1,-1,-1,-1],"loss_changes":[1.0358944E3,3.3416684E2,0E0,1.5149811E1,2.2128796E2,0E0,0E0,0E0,0E0],"parents":[2147483647,0,0,1,1,3,3,4,4],"right_children":[2,4,-1,6,8,-1,-1,-1,-1],"split_conditions":[4.92E1,8.39E1,8.0035764E-1,2.0521212E1,9.9E0,-1.5682068E-1,-4.03228E-1,-3.5523113E-2,1.5813404E-1],"split_indices":[15,43,0,1,15,0,0,0,0],"split_type":[0,0,0,0,0,0,0,0,0],"sum_hessian":[9.3E1,9E1,3E0,7E0,8.3E1,3E0,4E0,6.5E1,1.8E1],"tree_param":{"num_deleted":"0","num_feature":"60","num_nodes":"9","size_leaf_vector":"1"}},{"base_weights":[1.1094475E0,-1.3463017E-1,2.6024658E1,-7.822984E-1,3.6546535E0,2.8936997E-1,1.542064E0,-7.8921124E-2,2.7203143E-2,2.2678058E-1,-2.5004579E-2],"categories":[],"categories_nodes":[],"categories_segments":[],"categories_sizes":[],"default_left":[0,0,0,0,0,0,0,0,0,0,0],"id":70,"left_children":[1,3,5,7,9,-1,-1,-1,-1,-1,-1],"loss_changes":[2.6072063E3,2.0164912E2,2.1141016E2,7.477512E1,4.6190125E1,0E0,0E0,0E0,0E0,0E0,0E0],"parents":[2147483647,0,0,1,1,2,2,3,3,4,4],"right_children":[2,4,6,8,10,-1,-1,-1,-1,-1,-1],"split_conditions":[3.51E1,1.81E1,2.122479E1,1.326E2,1.3871576E2,2.8936997E-1,1.542064E0,-7.8921124E-2,2.7203143E-2,2.2678058E-1,-2.5004579E-2],"split_indices":[12,15,1,43,3,0,0,0,0,0,0],"split_type":[0,0,0,0,0,0,0,0,0,0,0],"sum_hessian":[8.3E1,8E1,3E0,6.9E1,1.1E1,1E0,2E0,4.3E1,2.6E1,9E0,2E0],"tree_param":{"num_deleted":"0","num_feature":"60","num_nodes":"11","size_leaf_vector":"1"}},{"base_weights":[7.362729E-1,-3.9609888E-1,2.518129E1,-1.8859448E0,2.3560727E0,2.8213578E-1,1.4906621E0,-3.839421E-1,-6.5193065E-2,2.0174614E-1,5.41691E-2],"categories":[],"categories_nodes":[],"categories_segments":[],"categories_sizes":[],"default_left":[0,0,0,0,0,0,0,0,0,0,0],"id":71,"left_children":[1,3,5,7,9,-1,-1,-1,-1,-1,-1],"loss_changes":[2.5012505E3,3.6117053E2,1.937793E2,1.8218906E2,6.1865005E1,0E0,0E0,0E0,0E0,0E0,0E0],"parents":[2147483647,0,0,1,1,2,2,3,3,4,4],"right_children":[2,4,6,8,10,-1,-1,-1,-1,-1,-1],"split_conditions":[3.51E1,5.8E0,2.122479E1,7.91E1,2.9318182E2,2.8213578E-1,1.4906621E0,-3.839421E-1,-6.5193065E-2,2.0174614E-1,5.41691E-2],"split_indices":[12,15,1,43,20,0,0,0,0,0,0],"split_type":[0,0,0,0,0,0,0,0,0,0,0],"sum_hessian":[8.9E1,8.6E1,3E0,5.6E1,3E1,1E0,2E0,4E0,5.2E1,1.2E1,1.8E1],"tree_param":{"num_deleted":"0","num_feature":"60","num_nodes":"11","size_leaf_vector":"1"}},{"base_weights":[5.393091E-1,-4.3091574E-1,1.4409734E0,-1.3727695E0,3.0617516E0,-1.2049111E-1,-1.9135017E-2,2.712059E-1,7.770943E-2],"categories":[],"categories_nodes":[],"categories_segments":[],"categories_sizes":[],"default_left":[0,0,0,0,0,0,0,0,0],"id":72,"left_children":[1,3,-1,5,7,-1,-1,-1,-1],"loss_changes":[2.4818489E3,2.9368628E2,0E0,7.095053E1,5.9236816E1,0E0,0E0,0E0,0E0],"parents":[2147483647,0,0,1,1,3,3,4,4],"right_children":[2,4,-1,6,8,-1,-1,-1,-1],"split_conditions":[3.51E1,1.25E1,1.4409734E0,1.096E2,7.1084E4,-1.2049111E-1,-1.9135017E-2,2.712059E-1,7.770943E-2],"split_indices":[12,15,0,43,30,0,0,0,0],"split_type":[0,0,0,0,0,0,0,0,0],"sum_hessian":[8.9E1,8.7E1,2E0,6.9E1,1.8E1,3.3E1,3.6E1,6E0,1.2E1],"tree_param":{"num_deleted":"0","num_feature":"60","num_nodes":"9","size_leaf_vector":"1"}},{"base_weights":[5.1545787E-1,3.751633E-3,1.2153962E0,-6.604918E-1,4.59779E0,-8.959454E-2,2.7110348E-2,3.3463538E-1,6.937104E-2],"categories":[],"categories_nodes":[],"categories_segments":[],"categories_sizes":[],"default_left":[0,0,0,0,0,0,0,0,0],"id":73,"left_children":[1,3,-1,5,7,-1,-1,-1,-1],"loss_changes":[1.1565103E3,2.8988345E2,0E0,1.1391235E2,7.141992E1,0E0,0E0,0E0,0E0],"parents":[2147483647,0,0,1,1,3,3,4,4],"right_children":[2,4,-1,6,8,-1,-1,-1,-1],"split_conditions":[1.7679659E2,2.17E1,1.2153962E0,1.179E2,8.6023094E1,-8.959454E-2,2.7110348E-2,3.3463538E-1,6.937104E-2],"split_indices":[11,15,0,52,0,0,0,0,0],"split_type":[0,0,0,0,0,0,0,0,0],"sum_hessian":[9.4E1,9.3E1,1E0,8.2E1,1.1E1,4.2E1,4E1,6E0,5E0],"tree_param":{"num_deleted":"0","num_feature":"60","num_nodes":"9","size_leaf_vector":"1"}},{"base_weights":[5.3848103E-2,-4.5525515E-1,1.1850113E0,-2.7714288E0,4.8492306E-1,-3.3595428E-1,-9.9900484E-2,-1.3145733E-2,1.1277437E-1],"categories":[],"categories_nodes":[],"categories_segments":[],"categories_sizes":[],"default_left":[0,0,0,0,0,0,0,0,0],"id":74,"left_children":[1,3,-1,5,7,-1,-1,-1,-1],"loss_changes":[1.1424037E3,2.0386221E2,0E0,6.901143E1,8.930735E1,0E0,0E0,0E0,0E0],"parents":[2147483647,0,0,1,1,3,3,4,4],"right_children":[2,4,-1,6,8,-1,-1,-1,-1],"split_conditions":[3.8128E1,1.04E2,1.1850113E0,7.91E1,1.25E1,-3.3595428E-1,-9.9900484E-2,-1.3145733E-2,1.1277437E-1],"split_indices":[6,43,0,43,15,0,0,0,0],"split_type":[0,0,0,0,0,0,0,0,0],"sum_hessian":[9.3E1,9.2E1,1E0,2.6E1,6.6E1,3E0,2.3E1,4.7E1,1.9E1],"tree_param":{"num_deleted":"0","num_feature":"60","num_nodes":"9","size_leaf_vector":"1"}},{"base_weights":[1.0605481E0,2.8858185E-2,2.24609E1,-1.4454194E0,1.9406546E0,2.2787324E-1,1.3454778E0,-1.0149882E-1,3.526802E-2,5.827586E-2,2.548085E-1],"categories":[],"categories_nodes":[],"categories_segments":[],"categories_sizes":[],"default_left":[0,0,0,0,0,0,0,0,0,0,0],"id":75,"left_children":[1,3,5,7,9,-1,-1,-1,-1,-1,-1],"loss_changes":[1.9201836E3,2.3956062E2,1.9594556E2,6.178002E1,8.456076E1,0E0,0E0,0E0,0E0,0E0,0E0],"parents":[2147483647,0,0,1,1,2,2,3,3,4,4],"right_children":[2,4,6,8,10,-1,-1,-1,-1,-1,-1],"split_conditions":[1.262E2,3.4E0,2.122479E1,4.57E1,6.43E1,2.2787324E-1,1.3454778E0,-1.0149882E-1,3.526802E-2,5.827586E-2,2.548085E-1],"split_indices":[11,15,1,9,9,0,0,0,0,0,0],"split_type":[0,0,0,0,0,0,0,0,0,0,0],"sum_hessian":[8.6E1,8.3E1,3E0,4.7E1,3.6E1,1E0,2E0,3.7E1,1E1,3E1,6E0],"tree_param":{"num_deleted":"0","num_feature":"60","num_nodes":"11","size_leaf_vector":"1"}},{"base_weights":[6.038562E-1,1.06484234E-1,1.1217492E0,-7.459557E-1,4.361585E0,-2.9712284E-1,-1.4494242E-2,2.5801757E-1,4.374447E-2],"categories":[],"categories_nodes":[],"categories_segments":[],"categories_sizes":[],"default_left":[0,0,0,0,0,0,0,0,0],"id":76,"left_children":[1,3,-1,5,7,-1,-1,-1,-1],"loss_changes":[9.748482E2,3.2607596E2,0E0,1.7602533E2,3.726111E1,0E0,0E0,0E0,0E0],"parents":[2147483647,0,0,1,1,3,3,4,4],"right_children":[2,4,-1,6,8,-1,-1,-1,-1],"split_conditions":[1.7679659E2,2.17E1,1.1217492E0,8.27E1,8.9797615E1,-2.9712284E-1,-1.4494242E-2,2.5801757E-1,4.374447E-2],"split_indices":[11,15,0,43,0,0,0,0,0],"split_type":[0,0,0,0,0,0,0,0,0],"sum_hessian":[8.9E1,8.8E1,1E0,7.4E1,1.4E1,5E0,6.9E1,1.1E1,3E0],"tree_param":{"num_deleted":"0","num_feature":"60","num_nodes":"9","size_leaf_vector":"1"}},{"base_weights":[-3.817732E-2,-6.2048846E-1,1.2636635E1,-1.0837357E0,2.67865E0,8.2274246E-1,2.9394734E-1,-3.269066E-1,-4.2555504E-2,2.0583104E-1,6.4880373E-3],"categories":[],"categories_nodes":[],"categories_segments":[],"categories_sizes":[],"default_left":[0,0,0,0,0,0,0,0,0,0,0],"id":77,"left_children":[1,3,5,7,9,-1,-1,-1,-1,-1,-1],"loss_changes":[6.7210254E2,1.3586649E2,6.471985E0,9.213542E1,3.9783348E1,0E0,0E0,0E0,0E0,0E0,0E0],"parents":[2147483647,0,0,1,1,2,2,3,3,4,4],"right_children":[2,4,6,8,10,-1,-1,-1,-1,-1,-1],"split_conditions":[2.4103E2,1.59E1,5.717629E1,7.58E1,8.478887E1,8.2274246E-1,2.9394734E-1,-3.269066E-1,-4.2555504E-2,2.0583104E-1,6.4880373E-3],"split_indices":[52,15,0,43,0,0,0,0,0,0,0],"split_type":[0,0,0,0,0,0,0,0,0,0,0],"sum_hessian":[8.9E1,8.6E1,3E0,7.6E1,1E1,1E0,2E0,2E0,7.4E1,6E0,4E0],"tree_param":{"num_deleted":"0","num_feature":"60","num_nodes":"11","size_leaf_vector":"1"}},{"base_weights":[1.0344146E0,1.1653891E-1,2.0969078E1,-1.7338338E0,1.204856E0,2.0837708E-1,1.2590206E0,-1.7726599E-1,-5.999866E-2,2.7189469E-2,1.9298922E-1],"categories":[],"categories_nodes":[],"categories_segments":[],"categories_sizes":[],"default_left":[0,0,0,0,0,0,0,0,0,0,0],"id":78,"left_children":[1,3,5,7,9,-1,-1,-1,-1,-1,-1],"loss_changes":[1.6626329E3,1.7930273E2,1.7808704E2,2.7659393E1,9.618582E1,0E0,0E0,0E0,0E0,0E0,0E0],"parents":[2147483647,0,0,1,1,2,2,3,3,4,4],"right_children":[2,4,6,8,10,-1,-1,-1,-1,-1,-1],"split_conditions":[1.2093E2,1.139E2,2.122479E1,8.29E1,7.02E1,2.0837708E-1,1.2590206E0,-1.7726599E-1,-5.999866E-2,2.7189469E-2,1.9298922E-1],"split_indices":[11,43,1,43,9,0,0,0,0,0,0],"split_type":[0,0,0,0,0,0,0,0,0,0,0],"sum_hessian":[9E1,8.7E1,3E0,3.2E1,5.5E1,1E0,2E0,6E0,2.6E1,4.5E1,1E1],"tree_param":{"num_deleted":"0","num_feature":"60","num_nodes":"11","size_leaf_vector":"1"}},{"base_weights":[5.063869E-1,4.3177288E-2,1.0548813E0,-4.2123184E-1,3.416773E0,-6.019811E-2,1.9579878E-2,6.980166E-2,2.7812272E-1],"categories":[],"categories_nodes":[],"categories_segments":[],"categories_sizes":[],"default_left":[0,0,0,0,0,0,0,0,0],"id":79,"left_children":[1,3,-1,5,7,-1,-1,-1,-1],"loss_changes":[8.670525E2,1.4244484E2,0E0,5.1369568E1,3.992914E1,0E0,0E0,0E0,0E0],"parents":[2147483647,0,0,1,1,3,3,4,4],"right_children":[2,4,-1,6,8,-1,-1,-1,-1],"split_conditions":[1.7679659E2,7.33E1,1.0548813E0,3.1E0,6E0,-6.019811E-2,1.9579878E-2,6.980166E-2,2.7812272E-1],"split_indices":[11,9,0,15,46,0,0,0,0],"split_type":[0,0,0,0,0,0,0,0,0],"sum_hessian":[9E1,8.9E1,1E0,7.9E1,1E1,4E1,3.9E1,6E0,4E0],"tree_param":{"num_deleted":"0","num_feature":"60","num_nodes":"9","size_leaf_vector":"1"}},{"base_weights":[9.0296805E-1,-1.4750617E-2,1.9949318E1,-2.6933963E0,7.0510566E-1,1.962143E-1,1.1991451E0,-3.080943E-1,-9.3735866E-2,1.562266E-2,1.45599E-1],"categories":[],"categories_nodes":[],"categories_segments":[],"categories_sizes":[],"default_left":[0,0,0,0,0,0,0,0,0,0,0],"id":80,"left_children":[1,3,5,7,9,-1,-1,-1,-1,-1,-1],"loss_changes":[1.5209839E3,1.6387128E2,1.6443738E2,3.956064E1,5.7147957E1,0E0,0E0,0E0,0E0,0E0,0E0],"parents":[2147483647,0,0,1,1,2,2,3,3,4,4],"right_children":[2,4,6,8,10,-1,-1,-1,-1,-1,-1],"split_conditions":[1.262E2,1.0613333E2,2.122479E1,3.92E1,2.4987947E1,1.962143E-1,1.1991451E0,-3.080943E-1,-9.3735866E-2,1.562266E-2,1.45599E-1],"split_indices":[11,53,1,11,15,0,0,0,0,0,0],"split_type":[0,0,0,0,0,0,0,0,0,0,0],"sum_hessian":[8.6E1,8.3E1,3E0,1.7E1,6.6E1,1E0,2E0,2E0,1.5E1,5.7E1,9E0],"tree_param":{"num_deleted":"0","num_feature":"60","num_nodes":"11","size_leaf_vector":"1"}},{"base_weights":[7.630677E-1,3.1786138E-1,9.9853057E-1,-2.862494E-1,4.5726595E0,-7.6553985E-2,4.6730813E-2,3.2406732E-1,9.509315E-2],"categories":[],"categories_nodes":[],"categories_segments":[],"categories_sizes":[],"default_left":[0,0,0,0,0,0,0,0,0],"id":81,"left_children":[1,3,-1,5,7,-1,-1,-1,-1],"loss_changes":[7.547196E2,2.2750145E2,0E0,1.1997307E2,4.37482E1,0E0,0E0,0E0,0E0],"parents":[2147483647,0,0,1,1,3,3,4,4],"right_children":[2,4,-1,6,8,-1,-1,-1,-1],"split_conditions":[3.8934E1,7.33E1,9.9853057E-1,3.1543992E0,9.2427295E2,-7.6553985E-2,4.6730813E-2,3.2406732E-1,9.509315E-2],"split_indices":[6,9,0,15,38,0,0,0,0],"split_type":[0,0,0,0,0,0,0,0,0],"sum_hessian":[8.8E1,8.7E1,1E0,7.7E1,1E1,3.8E1,3.9E1,5E0,5E0],"tree_param":{"num_deleted":"0","num_feature":"60","num_nodes":"9","size_leaf_vector":"1"}},{"base_weights":[5.7182884E-1,-1.6935036E-1,1.8958351E1,-1.0287508E0,2.1923156E0,1.8320695E-1,1.1417521E0,-3.057836E-1,-3.253514E-2,1.7710343E-1,-2.2823563E-2],"categories":[],"categories_nodes":[],"categories_segments":[],"categories_sizes":[],"default_left":[0,0,0,0,0,0,0,0,0,0,0],"id":82,"left_children":[1,3,5,7,9,-1,-1,-1,-1,-1,-1],"loss_changes":[1.4068644E3,2.0521701E2,1.5349316E2,1.3832996E2,9.814746E1,0E0,0E0,0E0,0E0,0E0,0E0],"parents":[2147483647,0,0,1,1,2,2,3,3,4,4],"right_children":[2,4,6,8,10,-1,-1,-1,-1,-1,-1],"split_conditions":[1.262E2,1.5667E2,2.122479E1,7.91E1,8.6023094E1,1.8320695E-1,1.1417521E0,-3.057836E-1,-3.253514E-2,1.7710343E-1,-2.2823563E-2],"split_indices":[11,43,1,43,0,0,0,0,0,0,0],"split_type":[0,0,0,0,0,0,0,0,0,0,0],"sum_hessian":[1.02E2,9.9E1,3E0,7.3E1,2.6E1,1E0,2E0,4E0,6.9E1,1.7E1,9E0],"tree_param":{"num_deleted":"0","num_feature":"60","num_nodes":"11","size_leaf_vector":"1"}},{"base_weights":[7.824224E-1,-5.3100318E-2,1.8341675E1,-4.334791E-1,3.2071517E0,1.7862701E-1,1.1036937E0,-5.4733247E-2,3.1943373E-2,5.5004377E-2,2.78298E-1],"categories":[],"categories_nodes":[],"categories_segments":[],"categories_sizes":[],"default_left":[0,0,0,0,0,0,0,0,0,0,0],"id":83,"left_children":[1,3,5,7,9,-1,-1,-1,-1,-1,-1],"loss_changes":[1.2920354E3,1.06801346E2,1.4162561E2,5.5293907E1,3.8608406E1,0E0,0E0,0E0,0E0,0E0,0E0],"parents":[2147483647,0,0,1,1,2,2,3,3,4,4],"right_children":[2,4,6,8,10,-1,-1,-1,-1,-1,-1],"split_conditions":[1.2933E2,7.33E1,2.122479E1,5.85E0,2.33125E2,1.7862701E-1,1.1036937E0,-5.4733247E-2,3.1943373E-2,5.5004377E-2,2.78298E-1],"split_indices":[11,9,1,15,23,0,0,0,0,0,0],"split_type":[0,0,0,0,0,0,0,0,0,0,0],"sum_hessian":[8.7E1,8.4E1,3E0,7.6E1,8E0,1E0,2E0,4.7E1,2.9E1,5E0,3E0],"tree_param":{"num_deleted":"0","num_feature":"60","num_nodes":"11","size_leaf_vector":"1"}},{"base_weights":[3.1972846E-1,-9.365229E-2,9.174309E-1,-8.11422E-1,2.5556915E0,-2.8469786E-1,-2.9204166E-2,1.0057163E-2,1.9562079E-1],"categories":[],"categories_nodes":[],"categories_segments":[],"categories_sizes":[],"default_left":[0,0,0,0,0,0,0,0,0],"id":84,"left_children":[1,3,-1,5,7,-1,-1,-1,-1],"loss_changes":[6.650172E2,1.6941618E2,0E0,7.4373474E1,5.990805E1,0E0,0E0,0E0,0E0],"parents":[2147483647,0,0,1,1,3,3,4,4],"right_children":[2,4,-1,6,8,-1,-1,-1,-1],"split_conditions":[1.7679659E2,5.38E1,9.174309E-1,7.34E1,1.285756E3,-2.8469786E-1,-2.9204166E-2,1.0057163E-2,1.9562079E-1],"split_indices":[11,9,0,43,34,0,0,0,0],"split_type":[0,0,0,0,0,0,0,0,0],"sum_hessian":[8.8E1,8.7E1,1E0,6.9E1,1.8E1,2E0,6.7E1,7E0,1.1E1],"tree_param":{"num_deleted":"0","num_feature":"60","num_nodes":"9","size_leaf_vector":"1"}},{"base_weights":[-1.1277546E-1,-1.0238997E0,1.5520033E0,-2.2203166E0,-2.6138932E-1,7.1071213E-1,3.8099551E0,-2.4234188E-1,-8.806156E-2,-2.3148017E-2,1.1558914E-1,5.944357E-2,-1.675733E-1,2.777034E-1,6.519257E-2],"categories":[],"categories_nodes":[],"categories_segments":[],"categories_sizes":[],"default_left":[0,0,0,0,0,0,0,0,0,0,0,0,0,0,0],"id":85,"left_children":[1,3,5,7,9,11,13,-1,-1,-1,-1,-1,-1,-1,-1],"loss_changes":[1.4568703E2,5.598101E1,6.187845E1,2.040274E1,2.1298664E1,5.448604E1,3.2096664E1,0E0,0E0,0E0,0E0,0E0,0E0,0E0,0E0],"parents":[2147483647,0,0,1,1,2,2,3,3,4,4,5,5,6,6],"right_children":[2,4,6,8,10,12,14,-1,-1,-1,-1,-1,-1,-1,-1],"split_conditions":[5.965133E0,1.07042946E2,6.804099E1,7.91E1,4.8958334E2,7.545477E1,9.2427295E2,-2.4234188E-1,-8.806156E-2,-2.3148017E-2,1.1558914E-1,5.944357E-2,-1.675733E-1,2.777034E-1,6.519257E-2],"split_indices":[15,43,9,43,24,1,38,0,0,0,0,0,0,0,0],"split_type":[0,0,0,0,0,0,0,0,0,0,0,0,0,0,0],"sum_hessian":[9.4E1,6.1E1,3.3E1,2.3E1,3.8E1,2.5E1,8E0,2E0,2.1E1,3.6E1,2E0,2.3E1,2E0,4E0,4E0],"tree_param":{"num_deleted":"0","num_feature":"60","num_nodes":"15","size_leaf_vector":"1"}},{"base_weights":[-8.6311854E-2,-4.7917992E-1,1.1335632E1,-1.2703971E0,8.5403603E-1,6.878441E-1,1.6232835E-1,-2.5891256E-1,-4.726811E-2,5.5743586E-2,-1.8731765E-1],"categories":[],"categories_nodes":[],"categories_segments":[],"categories_sizes":[],"default_left":[0,0,0,0,0,0,0,0,0,0,0],"id":86,"left_children":[1,3,5,7,9,-1,-1,-1,-1,-1,-1],"loss_changes":[4.0480304E2,9.285808E1,1.4094299E1,6.496507E1,4.3774918E1,0E0,0E0,0E0,0E0,0E0,0E0],"parents":[2147483647,0,0,1,1,2,2,3,3,4,4],"right_children":[2,4,6,8,10,-1,-1,-1,-1,-1,-1],"split_conditions":[3.51E1,4.8E0,5.717629E1,7.91E1,1.262E2,6.878441E-1,1.6232835E-1,-2.5891256E-1,-4.726811E-2,5.5743586E-2,-1.8731765E-1],"split_indices":[12,15,0,43,11,0,0,0,0,0,0],"split_type":[0,0,0,0,0,0,0,0,0,0,0],"sum_hessian":[8.8E1,8.6E1,2E0,5.4E1,3.2E1,1E0,1E0,3E0,5.1E1,3.1E1,1E0],"tree_param":{"num_deleted":"0","num_feature":"60","num_nodes":"11","size_leaf_vector":"1"}},{"base_weights":[-6.476229E-3,-4.1519788E-1,8.888077E-1,-2.5131512E-1,-1.9067864E-1,-2.1541767E-2,1.2562965E-1],"categories":[],"categories_nodes":[],"categories_segments":[],"categories_sizes":[],"default_left":[0,0,0,0,0,0,0],"id":87,"left_children":[1,3,-1,-1,5,-1,-1],"loss_changes":[6.469775E2,8.91111E1,0E0,0E0,5.561605E1,0E0,0E0],"parents":[2147483647,0,0,1,1,4,4],"right_children":[2,4,-1,-1,6,-1,-1],"split_conditions":[3.8128E1,7.91E1,8.888077E-1,-2.5131512E-1,1.2299252E3,-2.1541767E-2,1.2562965E-1],"split_indices":[6,43,0,0,38,0,0],"split_type":[0,0,0,0,0,0,0],"sum_hessian":[8.7E1,8.6E1,1E0,3E0,8.3E1,7.7E1,6E0],"tree_param":{"num_deleted":"0","num_feature":"60","num_nodes":"7","size_leaf_vector":"1"}},{"base_weights":[1.6751066E-1,-5.1364017E-1,1.0129804E1,-3.6401129E0,-1.5549144E-1,2.611531E-1,8.665878E-1,-2.6654044E-1,-9.531485E-2,-3.0541155E-2,4.6620004E-2],"categories":[],"categories_nodes":[],"categories_segments":[],"categories_sizes":[],"default_left":[0,0,0,0,0,0,0,0,0,0,0],"id":88,"left_children":[1,3,5,7,9,-1,-1,-1,-1,-1,-1],"loss_changes":[6.362847E2,9.79713E1,1.2150397E2,1.6220093E1,4.019765E1,0E0,0E0,0E0,0E0,0E0,0E0],"parents":[2147483647,0,0,1,1,2,2,3,3,4,4],"right_children":[2,4,6,8,10,-1,-1,-1,-1,-1,-1],"split_conditions":[2.256E2,8.6721115E1,6.98E1,4.06E1,7.1491876E0,2.611531E-1,8.665878E-1,-2.6654044E-1,-9.531485E-2,-3.0541155E-2,4.6620004E-2],"split_indices":[52,43,1,11,15,0,0,0,0,0,0],"split_type":[0,0,0,0,0,0,0,0,0,0,0],"sum_hessian":[9.2E1,8.7E1,5E0,8E0,7.9E1,4E0,1E0,3E0,5E0,5.6E1,2.3E1],"tree_param":{"num_deleted":"0","num_feature":"60","num_nodes":"11","size_leaf_vector":"1"}},{"base_weights":[1.696669E-1,-2.1685344E-1,8.4492344E-1,-7.05034E-1,4.092382E0,-2.5654516E-1,-2.3140838E-2,2.5586042E-1,7.660236E-2],"categories":[],"categories_nodes":[],"categories_segments":[],"categories_sizes":[],"default_left":[0,0,0,0,0,0,0,0,0],"id":89,"left_children":[1,3,-1,5,7,-1,-1,-1,-1],"loss_changes":[5.726744E2,1.8590585E2,0E0,8.231506E1,1.5775269E1,0E0,0E0,0E0,0E0],"parents":[2147483647,0,0,1,1,3,3,4,4],"right_children":[2,4,-1,6,8,-1,-1,-1,-1],"split_conditions":[1.7679659E2,2.5103462E1,8.4492344E-1,7.58E1,2.3781818E2,-2.5654516E-1,-2.3140838E-2,2.5586042E-1,7.660236E-2],"split_indices":[11,15,0,43,23,0,0,0,0],"split_type":[0,0,0,0,0,0,0,0,0],"sum_hessian":[8.7E1,8.6E1,1E0,7.8E1,8E0,3E0,7.5E1,5E0,3E0],"tree_param":{"num_deleted":"0","num_feature":"60","num_nodes":"9","size_leaf_vector":"1"}},{"base_weights":[1.774893E-1,-1.6039252E-1,8.238007E-1,-9.510637E-1,1.1474813E0,-8.986466E-2,-8.929375E-3,7.064318E-2,-2.1015702E-1],"categories":[],"categories_nodes":[],"categories_segments":[],"categories_sizes":[],"default_left":[0,0,0,0,0,0,0,0,0],"id":90,"left_children":[1,3,-1,5,7,-1,-1,-1,-1],"loss_changes":[5.4232623E2,1.0139885E2,0E0,3.9554237E1,5.847699E1,0E0,0E0,0E0,0E0],"parents":[2147483647,0,0,1,1,3,3,4,4],"right_children":[2,4,-1,6,8,-1,-1,-1,-1],"split_conditions":[3.8934E1,5.85E0,8.238007E-1,1.096E2,1.262E2,-8.986466E-2,-8.929375E-3,7.064318E-2,-2.1015702E-1],"split_indices":[6,15,0,43,11,0,0,0,0],"split_type":[0,0,0,0,0,0,0,0,0],"sum_hessian":[9.7E1,9.6E1,1E0,6E1,3.6E1,2.8E1,3.2E1,3.5E1,1E0],"tree_param":{"num_deleted":"0","num_feature":"60","num_nodes":"9","size_leaf_vector":"1"}},{"base_weights":[8.7125115E-2,-2.7846605E-1,1.0660228E1,-1.1114089E-1,-2.463262E-1,6.483795E-1,1.5113755E-1,-1.9583683E-2,1.3189732E-1],"categories":[],"categories_nodes":[],"categories_segments":[],"categories_sizes":[],"default_left":[0,0,0,0,0,0,0,0,0],"id":91,"left_children":[1,3,5,7,-1,-1,-1,-1,-1],"loss_changes":[3.4699207E2,6.7115585E1,1.3669495E1,6.658598E1,0E0,0E0,0E0,0E0,0E0],"parents":[2147483647,0,0,1,1,2,2,3,3],"right_children":[2,4,6,8,-1,-1,-1,-1,-1],"split_conditions":[3.51E1,1.262E2,5.717629E1,2.4987947E1,-2.463262E-1,6.483795E-1,1.5113755E-1,-1.9583683E-2,1.3189732E-1],"split_indices":[12,11,0,15,0,0,0,0,0],"split_type":[0,0,0,0,0,0,0,0,0],"sum_hessian":[8.8E1,8.6E1,2E0,8.4E1,2E0,1E0,1E0,7.7E1,7E0],"tree_param":{"num_deleted":"0","num_feature":"60","num_nodes":"9","size_leaf_vector":"1"}},{"base_weights":[3.846404E-1,-1.9777852E-1,9.5439863E-1,-3.7123127E0,1.1682205E-1,-7.9072475E-2,-2.3372702E-1,-5.6581497E-3,2.0246004E-1],"categories":[],"categories_nodes":[],"categories_segments":[],"categories_sizes":[],"default_left":[0,0,0,0,0,0,0,0,0],"id":92,"left_children":[1,3,-1,5,7,-1,-1,-1,-1],"loss_changes":[1.0821995E3,1.076841E2,0E0,9.01046E0,8.1853165E1,0E0,0E0,0E0,0E0],"parents":[2147483647,0,0,1,1,3,3,4,4],"right_children":[2,4,-1,6,8,-1,-1,-1,-1],"split_conditions":[1.2933E2,8.39E1,9.5439863E-1,2.95E1,2.25E2,-7.9072475E-2,-2.3372702E-1,-5.6581497E-3,2.0246004E-1],"split_indices":[11,43,0,1,52,0,0,0,0],"split_type":[0,0,0,0,0,0,0,0,0],"sum_hessian":[9.8E1,9.6E1,2E0,7E0,8.9E1,3E0,4E0,8.5E1,4E0],"tree_param":{"num_deleted":"0","num_feature":"60","num_nodes":"9","size_leaf_vector":"1"}},{"base_weights":[-3.5078807E-3,-6.118828E-1,9.22585E-1,-2.8222473E0,-1.7334579E-1,-1.729047E-1,-4.294678E-2,-2.0121532E-2,9.2640735E-2],"categories":[],"categories_nodes":[],"categories_segments":[],"categories_sizes":[],"default_left":[0,0,0,0,0,0,0,0,0],"id":93,"left_children":[1,3,-1,5,7,-1,-1,-1,-1],"loss_changes":[1.0554651E3,8.77195E1,0E0,1.5755203E1,3.648615E1,0E0,0E0,0E0,0E0],"parents":[2147483647,0,0,1,1,3,3,4,4],"right_children":[2,4,-1,6,8,-1,-1,-1,-1],"split_conditions":[3.51E1,4.9256742E-1,9.22585E-1,2.7333334E2,2.17E1,-1.729047E-1,-4.294678E-2,-2.0121532E-2,9.2640735E-2],"split_indices":[12,17,0,22,15,0,0,0,0],"split_type":[0,0,0,0,0,0,0,0,0],"sum_hessian":[9.2E1,9E1,2E0,1.4E1,7.6E1,1E1,4E0,6.9E1,7E0],"tree_param":{"num_deleted":"0","num_feature":"60","num_nodes":"9","size_leaf_vector":"1"}},{"base_weights":[3.4490058E-1,-3.1199062E-1,1.4381836E1,-5.760374E-1,2.7502573E0,1.0043488E-1,8.918325E-1,-3.8653675E-2,1.2670593E-1,1.5911993E-1,3.9352416E-3],"categories":[],"categories_nodes":[],"categories_segments":[],"categories_sizes":[],"default_left":[0,0,0,0,0,0,0,0,0,0,0],"id":94,"left_children":[1,3,5,7,9,-1,-1,-1,-1,-1,-1],"loss_changes":[8.251328E2,7.112186E1,1.3515912E2,5.0984104E1,7.830948E0,0E0,0E0,0E0,0E0,0E0,0E0],"parents":[2147483647,0,0,1,1,2,2,3,3,4,4],"right_children":[2,4,6,8,10,-1,-1,-1,-1,-1,-1],"split_conditions":[1.2933E2,2.17E1,2.122479E1,1.50688E5,8.9797615E1,1.0043488E-1,8.918325E-1,-3.8653675E-2,1.2670593E-1,1.5911993E-1,3.9352416E-3],"split_indices":[11,15,1,18,0,0,0,0,0,0,0],"split_type":[0,0,0,0,0,0,0,0,0,0,0],"sum_hessian":[8.8E1,8.5E1,3E0,7.9E1,6E0,1E0,2E0,7.5E1,4E0,5E0,1E0],"tree_param":{"num_deleted":"0","num_feature":"60","num_nodes":"11","size_leaf_vector":"1"}},{"base_weights":[2.7220273E-1,-3.160944E-1,8.6210436E-1,-6.465674E-1,2.0259523E0,-4.269029E-2,7.738942E-2,1.399911E-1,2.6867216E-2],"categories":[],"categories_nodes":[],"categories_segments":[],"categories_sizes":[],"default_left":[0,0,0,0,0,0,0,0,0],"id":95,"left_children":[1,3,-1,5,7,-1,-1,-1,-1],"loss_changes":[8.9396686E2,6.8646454E1,0E0,3.6337624E1,1.1167412E1,0E0,0E0,0E0,0E0],"parents":[2147483647,0,0,1,1,3,3,4,4],"right_children":[2,4,-1,6,8,-1,-1,-1,-1],"split_conditions":[1.2933E2,1.59E1,8.6210436E-1,7.33E1,5.1E1,-4.269029E-2,7.738942E-2,1.399911E-1,2.6867216E-2],"split_indices":[11,15,0,9,7,0,0,0,0],"split_type":[0,0,0,0,0,0,0,0,0],"sum_hessian":[8.8E1,8.6E1,2E0,7.6E1,1E1,7E1,6E0,6E0,4E0],"tree_param":{"num_deleted":"0","num_feature":"60","num_nodes":"9","size_leaf_vector":"1"}},{"base_weights":[6.274282E-2,-2.6613447E-1,7.086548E-1,-7.7845655E-2,-4.106594E0,-3.3714492E-2,6.278389E-2,-2.6350278E-1,-1.5405274E-2],"categories":[],"categories_nodes":[],"categories_segments":[],"categories_sizes":[],"default_left":[0,0,0,0,0,0,0,0,0],"id":96,"left_children":[1,3,-1,5,7,-1,-1,-1,-1],"loss_changes":[4.0750195E2,6.1868263E1,0E0,6.686259E1,1.6053848E1,0E0,0E0,0E0,0E0],"parents":[2147483647,0,0,1,1,3,3,4,4],"right_children":[2,4,-1,6,8,-1,-1,-1,-1],"split_conditions":[1.7679659E2,2.1357764E2,7.086548E-1,4.19E1,1.2776181E2,-3.3714492E-2,6.278389E-2,-2.6350278E-1,-1.5405274E-2],"split_indices":[11,55,0,9,2,0,0,0,0],"split_type":[0,0,0,0,0,0,0,0,0],"sum_hessian":[8.6E1,8.5E1,1E0,8.2E1,3E0,5.7E1,2.5E1,2E0,1E0],"tree_param":{"num_deleted":"0","num_feature":"60","num_nodes":"9","size_leaf_vector":"1"}},{"base_weights":[1.5310635E-1,-9.0530045E-2,5.3982776E-1,-8.3592194E-1,8.248383E-1,-2.1446382E-1,-2.9885475E-2,5.5404194E-2,-2.5554353E-1],"categories":[],"categories_nodes":[],"categories_segments":[],"categories_sizes":[],"default_left":[0,0,0,0,0,0,0,0,0],"id":97,"left_children":[1,3,-1,5,7,-1,-1,-1,-1],"loss_changes":[2.317661E2,6.073261E1,0E0,3.7745224E1,7.291382E1,0E0,0E0,0E0,0E0],"parents":[2147483647,0,0,1,1,3,3,4,4],"right_children":[2,4,-1,6,8,-1,-1,-1,-1],"split_conditions":[3.51E1,4.4E0,5.3982776E-1,3.92E1,8.716041E1,-2.1446382E-1,-2.9885475E-2,5.5404194E-2,-2.5554353E-1],"split_indices":[12,15,0,11,1,0,0,0,0],"split_type":[0,0,0,0,0,0,0,0,0],"sum_hessian":[8.8E1,8.7E1,1E0,4.8E1,3.9E1,2E0,4.6E1,3.8E1,1E0],"tree_param":{"num_deleted":"0","num_feature":"60","num_nodes":"9","size_leaf_vector":"1"}},{"base_weights":[-1.4231308E-1,-2.1035324E-1,7.087517E-2,-2.7658787E-1,1.7018262E0,-1.9205347E-2,9.311505E-2,2.2289403E-1,9.099007E-3],"categories":[],"categories_nodes":[],"categories_segments":[],"categories_sizes":[],"default_left":[0,0,0,0,0,0,0,0,0],"id":98,"left_children":[1,-1,3,5,7,-1,-1,-1,-1],"loss_changes":[8.695391E1,0E0,5.4873444E1,1.9113026E1,7.039799E1,0E0,0E0,0E0,0E0],"parents":[2147483647,0,0,2,2,3,3,4,4],"right_children":[2,-1,4,6,8,-1,-1,-1,-1],"split_conditions":[7.91E1,-2.1035324E-1,1.9129797E2,3.3962964E2,6E0,-1.9205347E-2,9.311505E-2,2.2289403E-1,9.099007E-3],"split_indices":[43,0,43,28,13,0,0,0,0],"split_type":[0,0,0,0,0,0,0,0,0],"sum_hessian":[9.9E1,4E0,9.5E1,7.9E1,1.6E1,7.6E1,3E0,5E0,1.1E1],"tree_param":{"num_deleted":"0","num_feature":"60","num_nodes":"9","size_leaf_vector":"1"}},{"base_weights":[2.1496598E-1,-8.6985216E-2,6.772156E-1,9.8475076E-2,-4.052635E0,-1.0588044E-2,1.1164856E-1,-2.512151E-1,-2.8440857E-2],"categories":[],"categories_nodes":[],"categories_segments":[],"categories_sizes":[],"default_left":[0,0,0,0,0,0,0,0,0],"id":99,"left_children":[1,3,-1,5,7,-1,-1,-1,-1],"loss_changes":[3.6341122E2,6.585597E1,0E0,5.7421833E1,1.0682526E1,0E0,0E0,0E0,0E0],"parents":[2147483647,0,0,1,1,3,3,4,4],"right_children":[2,4,-1,6,8,-1,-1,-1,-1],"split_conditions":[1.596E2,2.13535E2,6.772156E-1,2.04285E2,1.0570035E2,-1.0588044E-2,1.1164856E-1,-2.512151E-1,-2.8440857E-2],"split_indices":[11,55,0,54,0,0,0,0,0],"split_type":[0,0,0,0,0,0,0,0,0],"sum_hessian":[8.9E1,8.8E1,1E0,8.5E1,3E0,7.5E1,1E1,2E0,1E0],"tree_param":{"num_deleted":"0","num_feature":"60","num_nodes":"9","size_leaf_vector":"1"}},{"base_weights":[5.116245E-1,-4.9519885E-2,1.2308037E1,-4.2976063E-1,2.5475326E0,4.414902E-2,7.911031E-1,-4.326405E-2,2.9625753E-2,2.2150376E-1,4.1946303E-2],"categories":[],"categories_nodes":[],"categories_segments":[],"categories_sizes":[],"default_left":[0,0,0,0,0,0,0,0,0,0,0],"id":100,"left_children":[1,3,5,7,9,-1,-1,-1,-1,-1,-1],"loss_changes":[5.8312463E2,8.5032776E1,1.4662122E2,3.3904335E1,3.1665276E1,0E0,0E0,0E0,0E0,0E0,0E0],"parents":[2147483647,0,0,1,1,2,2,3,3,4,4],"right_children":[2,4,6,8,10,-1,-1,-1,-1,-1,-1],"split_conditions":[1.2933E2,7.33E1,2.122479E1,3.18722E2,9.2427295E2,4.414902E-2,7.911031E-1,-4.326405E-2,2.9625753E-2,2.2150376E-1,4.1946303E-2],"split_indices":[11,9,1,35,38,0,0,0,0,0,0],"split_type":[0,0,0,0,0,0,0,0,0,0,0],"sum_hessian":[8.7E1,8.4E1,3E0,7.4E1,1E1,1E0,2E0,5.2E1,2.2E1,4E0,6E0],"tree_param":{"num_deleted":"0","num_feature":"60","num_nodes":"11","size_leaf_vector":"1"}},{"base_weights":[4.765897E-1,-5.4168966E-2,1.19014435E1,1.6573529E-1,-3.050499E0,4.3045044E-2,7.647329E-1,-1.1136199E-2,7.7964865E-2,-3.7308503E-2,-2.5530523E-1],"categories":[],"categories_nodes":[],"categories_segments":[],"categories_sizes":[],"default_left":[0,0,0,0,0,0,0,0,0,0,0],"id":101,"left_children":[1,3,5,7,9,-1,-1,-1,-1,-1,-1],"loss_changes":[5.463904E2,5.783037E1,1.3668451E2,4.4737343E1,2.461073E1,0E0,0E0,0E0,0E0,0E0,0E0],"parents":[2147483647,0,0,1,1,2,2,3,3,4,4],"right_children":[2,4,6,8,10,-1,-1,-1,-1,-1,-1],"split_conditions":[3.51E1,2.13535E2,2.122479E1,1.5667E2,9.4603355E1,4.3045044E-2,7.647329E-1,-1.1136199E-2,7.7964865E-2,-3.7308503E-2,-2.5530523E-1],"split_indices":[12,55,1,43,11,0,0,0,0,0,0],"split_type":[0,0,0,0,0,0,0,0,0,0,0],"sum_hessian":[8.9E1,8.6E1,3E0,8.1E1,5E0,1E0,2E0,6.4E1,1.7E1,3E0,2E0],"tree_param":{"num_deleted":"0","num_feature":"60","num_nodes":"11","size_leaf_vector":"1"}},{"base_weights":[-8.345179E-3,-3.1156355E-1,6.2138903E-1,-1.8232378E-1,-4.765399E-2,8.851562E-3,-2.0962086E-1],"categories":[],"categories_nodes":[],"categories_segments":[],"categories_sizes":[],"default_left":[0,0,0,0,0,0,0],"id":102,"left_children":[1,3,-1,-1,5,-1,-1],"loss_changes":[3.1685358E2,7.199567E1,0E0,0E0,7.2449745E1,0E0,0E0],"parents":[2147483647,0,0,1,1,4,4],"right_children":[2,4,-1,-1,6,-1,-1],"split_conditions":[3.4425E1,4.274946E1,6.2138903E-1,-1.8232378E-1,2.1239827E2,8.851562E-3,-2.0962086E-1],"split_indices":[6,11,0,0,55,0,0],"split_type":[0,0,0,0,0,0,0],"sum_hessian":[8.2E1,8.1E1,1E0,5E0,7.6E1,7.3E1,3E0],"tree_param":{"num_deleted":"0","num_feature":"60","num_nodes":"7","size_leaf_vector":"1"}},{"base_weights":[-9.669105E-2,-3.7108877E-1,4.1752014E-1,-1.0488797E0,3.001766E-1,-9.931153E-2,-2.1545371E-2,1.2258698E-1,2.1506997E-3],"categories":[],"categories_nodes":[],"categories_segments":[],"categories_sizes":[],"default_left":[0,0,0,0,0,0,0,0,0],"id":103,"left_children":[1,3,-1,5,7,-1,-1,-1,-1],"loss_changes":[2.209779E2,4.2172787E1,0E0,2.5789936E1,2.5899712E1,0E0,0E0,0E0,0E0],"parents":[2147483647,0,0,1,1,3,3,4,4],"right_children":[2,4,-1,6,8,-1,-1,-1,-1],"split_conditions":[4.92E1,4.8E0,4.1752014E-1,1.0988E4,7.24959E2,-9.931153E-2,-2.1545371E-2,1.2258698E-1,2.1506997E-3],"split_indices":[15,13,0,32,33,0,0,0,0],"split_type":[0,0,0,0,0,0,0,0,0],"sum_hessian":[9.3E1,9.1E1,2E0,4.5E1,4.6E1,1.7E1,2.8E1,4E0,4.2E1],"tree_param":{"num_deleted":"0","num_feature":"60","num_nodes":"9","size_leaf_vector":"1"}},{"base_weights":[3.1670597E-1,-1.2376735E-1,1.1139244E1,3.3862792E-2,-2.58961E-1,3.130951E-2,7.217433E-1,-1.8807389E-1,1.1877462E-2],"categories":[],"categories_nodes":[],"categories_segments":[],"categories_sizes":[],"default_left":[0,0,0,0,0,0,0,0,0],"id":104,"left_children":[1,3,5,7,-1,-1,-1,-1,-1],"loss_changes":[4.8761667E2,7.906766E1,1.2954929E2,7.58803E1,0E0,0E0,0E0,0E0,0E0],"parents":[2147483647,0,0,1,1,2,2,3,3],"right_children":[2,4,6,8,-1,-1,-1,-1,-1],"split_conditions":[3.51E1,2.1357764E2,2.122479E1,7.91E1,-2.58961E-1,3.130951E-2,